11996 20
영화 0.079093784 0.025361614 -0.01679169 0.10887317 0.03595409 0.009229819 0.044772692 -0.02323155 -0.022476412 0.015463301 -0.056016207 0.042334855 -0.031267118 -0.0030729724 -0.03402748 -0.048354186 0.061406754 -0.037317824 0.091264926 0.046129413
다 -0.010409372 0.009979248 -0.045709882 0.05810204 0.026551943 -0.032102823 0.0032449625 -0.039409384 0.0477478 0.027239338 -0.0054905466 0.049656246 -0.022008263 0.05669547 0.029296136 -0.039352413 0.07562868 0.011493024 0.0609653 -0.039705943
고 0.0022375179 0.007521976 -0.017459318 0.00078388024 -0.0012077013 0.017743587 -0.07908432 0.028421868 0.038646318 -0.019504204 0.041193567 0.021982387 -0.060802877 -0.026198706 -0.007075964 -0.075145744 0.10027193 -0.023135565 0.05161545 0.01189415
하 -0.03581885 0.0346032 -0.027777338 -0.0054060267 -0.010539904 -0.037590012 0.05249533 -0.024721507 -0.025470091 -0.0024515945 -0.0054875314 0.048142444 -0.05420995 -0.013931935 0.01701759 -0.06876125 -0.03539191 -0.03417189 -0.0002003214 0.03765142
을 0.020611018 -0.0052395836 -0.021324396 -0.0652179 0.0076034334 0.03491357 0.08780181 0.00818831 0.06366563 -0.01204544 -0.04123816 0.023277221 0.011424267 0.005814473 0.04180476 -0.038892634 -0.06623555 -0.032915574 -0.008969553 -0.015172886
보 0.011745986 0.015365899 -0.032534726 0.06525527 0.011123538 -0.029223561 0.034730703 0.021771133 -0.04917227 0.0061604376 -0.043909416 -0.028863 -0.0452554 0.031418588 0.00065941666 -0.024344925 -0.005553475 -0.034527496 -0.023858612 -0.03241529
게 0.048752204 0.014587039 0.014878914 0.072388746 0.05989424 0.05814376 0.016603664 0.030649245 0.023303652 0.05195822 -0.021745794 0.0056369887 -0.07733686 0.012698396 -0.0073435754 -0.0464334 0.0842324 -0.046991747 0.02084625 0.040999394
지 -0.041133203 -0.008995874 0.042032257 -0.15564483 -0.011598681 -0.025362544 -0.035315193 0.016902285 -0.049295362 0.02372757 -0.058154047 -0.033714194 0.030515892 -0.0054052495 -0.0024167565 0.104925886 -0.06486591 0.06342008 -0.024618441 -0.031112896
있 -0.028864656 0.015001964 -0.06572343 -0.013440188 0.02277444 -0.041861273 -0.0036973134 0.016427195 -0.050975107 0.009448534 -0.023800867 -0.026363282 -0.018578805 -0.042342797 0.043010868 -0.039721504 0.008384883 -0.025181705 0.06215053 -0.00034389002
없 -0.015549317 0.0988137 0.091017224 -0.099837385 -0.06979196 0.039419208 0.07624493 -0.061273646 0.036108874 -0.017700497 0.029175388 0.06899428 0.016072731 0.046167664 -0.10182722 0.0072274287 -0.046485387 0.04880649 -0.0597665 0.056919176
좋 0.06086119 -0.06111575 -0.021018943 0.07848583 0.024340773 -0.035346493 -0.16160023 0.014866375 -0.12458385 0.01321363 -0.055845845 -0.055688437 -0.099489294 -0.0913396 0.037241187 -0.08223918 0.094354086 -0.06420275 0.06884428 -0.04672961
나 0.068176076 -0.024800953 -0.037409786 -0.024439875 -0.036902882 0.02561265 0.026749726 0.0021319378 -0.02823777 -0.006950195 -0.06777464 0.04994948 -0.021379452 -0.01948243 -0.025579363 0.026054045 -0.07603999 0.00046741188 -0.016804256 0.02374076
었 0.008640401 -0.031459052 -0.010270193 -0.0071375174 0.014769978 -0.0029023476 0.03758366 -0.025732117 -0.005817574 -0.0053563146 -0.046019845 -0.035844475 -0.0690085 -0.02187567 -0.015154101 0.0095925955 -0.0039112656 -0.056387868 0.03940384 -0.046327386
만 0.046651956 0.055458274 0.027332459 0.0468669 -0.016755303 -0.011756093 0.07862617 -0.030113285 0.001041681 0.0060474547 -0.067367986 0.04617439 0.038874153 -0.010737943 -0.056833114 -0.005922001 -0.023114583 0.052431814 0.020763224 0.029173246
는데 -0.041464232 0.0006433959 0.0036855855 -0.1595681 0.019198412 -0.027492346 -0.08490373 0.023549352 -0.04178009 0.055703856 0.062495258 -0.028573351 0.05728192 -0.03502724 0.07971649 0.02768689 -0.16761543 0.07285309 -0.13857771 -0.015147023
너무 -0.03201032 0.028947853 -0.00014013893 0.04165602 0.041368663 0.0007283136 -0.19022971 0.024907874 0.0933616 0.029343281 0.03751562 0.022611232 -0.058932994 -0.010911167 -0.047825374 -0.12572879 0.09809363 -0.036168817 0.007033777 0.010107735
봤 -0.0040660547 -0.032215297 -0.024940526 -0.021199964 0.040747415 0.05461822 -0.083285235 -0.0007407258 0.040531226 0.025939314 0.002315359 0.009262473 0.019238543 -0.009563248 0.012968858 0.002550855 0.040116437 -0.044943433 0.024993172 -0.030357447
적 -0.02995016 0.035774563 -0.027971717 0.029615143 0.034526657 -0.0054796077 0.02188574 0.036502287 0.027086182 0.05522622 0.005356169 -0.035955977 0.03132137 -0.05405685 0.057212364 -0.01793814 0.014101975 0.024685994 0.002834618 -0.001920253
안 -0.01482941 0.039043568 0.033240385 -0.12137671 -0.05569474 -0.017466875 0.12224509 -0.034904163 0.050563104 -0.07032434 0.013568087 0.08439979 0.070138335 0.0426842 0.02335414 0.07043796 -0.14704634 0.08052852 -0.041572537 0.06235848
정말 0.06307623 -0.0054222853 -0.07554448 0.056510393 0.062423218 -0.0034877216 -0.03327666 0.062344626 0.012008559 0.08329688 0.039122794 0.0056275516 -0.051907547 0.047909457 0.017662093 -0.1177092 0.047405522 -0.049550846 -0.030644417 -0.015271118
로 0.00048797237 -0.029263524 0.030403912 0.009234296 -0.05155379 0.045379978 0.057567045 0.02329396 0.04681027 -0.006818311 0.004118294 0.06129453 0.008751728 -0.015716102 0.025037564 0.022045583 -0.021414002 0.020746836 0.022294886 0.031444326
것 0.0050426098 0.020728087 0.027707735 -0.010590854 0.044154968 0.016807 0.0020101557 0.030702572 -0.012640574 -0.022600874 0.033659462 -0.06565908 -0.020247351 -0.053959217 -0.027368646 -0.02568764 0.0004447766 0.0020732807 0.012609725 0.011107253
음 0.09925015 0.021302486 0.013128515 0.0926992 -0.019391133 0.011538052 0.056791678 -0.033165526 0.04911874 -0.030624963 -0.039002977 -0.022410596 -0.11171222 0.032067914 -0.057346575 -0.054393936 0.08394909 -0.05534139 0.06572394 0.004043353
아 0.036940422 0.009801968 -0.045319874 -0.024826095 -0.042261582 0.005757809 0.026094718 -0.043560956 0.041194413 0.008158802 -0.03409408 -0.047166914 -0.0033879436 -0.03941907 -0.028415637 0.039298337 0.05206662 0.035096157 -0.021235496 -0.018456483
네요 0.06270363 0.03342936 -0.04318289 0.15999109 -0.013394616 0.059082743 -0.05779758 -0.07539059 0.026803127 0.04889357 -0.023536902 -0.024104994 -0.08586278 -0.037484493 -0.047059745 -0.019099578 0.16003385 -0.042472333 0.06180351 0.03888401
어 0.0005398469 0.0025238628 -0.0663923 -0.029836839 0.0321888 -0.03588748 -0.00946857 -0.013119772 0.04732911 0.0003983939 0.02625726 0.033352017 -0.048425935 0.02735014 0.0056398953 -0.027993253 0.051197365 -0.030632498 -0.00075719925 -0.030943379
재밌 0.10445808 -0.14095211 -0.12913889 0.11861714 0.08555825 -0.1251835 -0.042352505 0.0705689 -0.10603157 0.07175235 -0.119922124 -0.074313425 -0.10810866 -0.13850287 0.14833006 -0.09660384 0.07749896 -0.069621295 0.088579535 -0.069534354
지만 -0.09452032 -0.074781984 -0.059951104 -0.2574647 0.035263225 -0.039334618 -0.10867099 0.021121494 -0.07082018 0.028775001 -0.012622419 -0.08321684 0.13858537 -0.10001505 0.11332222 0.02904839 -0.16303954 0.10533634 -0.12503064 -0.07476363
같 0.024590656 0.04475959 -0.035121307 -0.00886763 0.03377412 0.0015187651 -0.038019307 0.022794938 0.007184912 0.034935877 0.032936454 -0.011589419 -0.0004488866 0.031963795 -0.021473398 -0.015467393 0.06411136 -0.027723689 0.035222687 -0.0070226844
진짜 0.045409072 0.0023540095 -0.06285932 0.0075001656 0.04549815 -0.017998334 -0.05566895 0.022066602 -0.014732973 0.08153366 0.0074369335 -0.02119678 -0.06769361 0.014759122 -0.0034997049 -0.06879846 0.028767737 -0.040173374 -0.03403942 0.0016003632
에서 0.02037045 -0.011700665 -0.039409265 -0.017574232 0.022476105 0.024789859 0.02146026 -0.008693736 0.0067037656 -0.033208888 -0.010266983 -0.051149998 0.013022516 0.014090061 0.015492739 -0.03902328 -0.01943016 0.022285905 -0.02752705 0.014073859
했 0.031874202 -0.044713095 -0.0010069805 0.029405987 0.068786904 0.032548696 0.031264015 -0.014098223 0.037286818 -0.0075594094 0.009092093 0.004834832 -0.054458894 0.019396044 -0.02773625 0.019140823 0.022633286 -0.019331247 0.042962644 0.021170223
기 0.021643711 0.011326752 0.012645171 -0.043283604 -0.0034486742 -0.0059612673 -0.0031760624 -0.021286622 0.030641936 -0.042352173 -0.002784901 0.041466594 -0.01139533 0.04327998 -0.0078102998 -0.0042987177 0.0011986424 0.04463948 -0.04556402 0.025174309
네 0.006109904 0.023600588 -0.029937996 0.036826346 0.022264399 0.037568703 0.04668542 -0.03436025 0.026401633 -0.04489584 0.042167094 -0.017723566 -0.022589056 0.06432866 0.019229015 -0.050238024 0.016646266 -0.026727557 0.07173681 0.029152578
않 -0.04804897 -0.055065915 0.058454134 -0.18455532 -0.049465515 -0.0147202015 0.07047188 0.05995154 -0.042747624 0.0249426 0.025077308 -0.007462686 0.10586354 -0.017506314 0.070086636 0.074295364 -0.18159981 0.024687238 -0.13616498 -0.01744484
점 -0.055872105 -0.050976787 0.050848212 -0.067992344 -0.06054929 -0.059228055 -0.0012429366 0.006169711 -0.10825722 0.038879987 -0.054216977 -0.0026601178 0.016626645 0.006548282 0.023207199 0.08788371 -0.07450827 0.013838375 0.010969354 -0.055128627
거 -0.041864507 0.037863407 0.028616784 -0.056742746 -0.08414244 -0.049244072 0.057487763 -0.037511762 -0.0015545993 0.00010525003 -0.021152455 -0.018595189 0.0614528 -0.011529778 -0.06371608 0.011995411 0.0062762047 -0.010903954 -0.065840416 -0.028944567
았 -0.0043811677 -0.0041610566 -0.051177822 -0.033867765 0.038461387 0.0378003 -0.07787809 -0.03219195 0.029238585 -0.003778653 0.004434513 -0.0049908105 0.04880165 -0.051680814 0.010501198 0.045870107 -0.0014216382 -0.03166488 0.0349969 -0.023958864
수 0.047374416 -0.044080704 -0.04249436 -0.018087855 -0.004879148 -0.03272427 0.08024846 0.024456559 -0.04902257 0.021578304 -0.09339183 -0.038055815 -0.0055030785 -0.010546317 0.01761898 -0.029646825 0.0007565422 -0.025219647 0.071545996 -0.0246315
되 0.06288588 -0.0126034245 0.0072754757 0.07133979 0.005053111 -0.014168197 -0.023005078 0.00021446537 0.00696817 0.0091613745 0.023015505 -0.0502482 -0.026049988 0.0052915877 0.027682865 -0.0054951883 0.040544648 -0.022789955 0.059686344 0.012522097
면 -0.0013014927 -0.06340148 0.04784643 -0.024039894 -0.04769393 -0.0117294565 0.07331477 0.024078462 -0.015310255 -0.022389103 -0.019790309 0.0034543856 0.06565337 -0.029433178 -0.016164314 0.02293773 -0.03658932 0.03228008 0.020878188 -0.0032714012
ㅋㅋ 0.05654318 -0.030126862 0.015408481 0.049750745 -0.017587492 0.01991447 -0.022294445 -0.04443804 -0.05107081 -0.0013305951 0.016107868 -0.03409455 -0.034179665 -0.005345574 -0.05478303 -0.036096074 0.0036866858 -0.01728849 -0.013749154 -0.016712645
인 0.06314919 -0.061508466 -0.0346743 0.042198967 -0.027295435 -0.024191849 -0.04982944 -0.0174885 0.03613763 -0.020826044 -0.003854257 0.0010951455 0.013198621 -0.014224812 -0.0038605393 0.009831128 0.061282944 -0.05580127 0.024389917 0.016132915
말 0.013237628 -0.031149855 -0.017666046 -0.001755731 0.0080183465 -0.0029668608 -0.0017849964 0.032855276 0.04431394 0.066450156 0.013390018 0.031513814 0.024165498 0.006888877 0.018505476 -0.032811046 0.033660296 -0.039831385 0.01070379 -0.009397621
연기 0.03257655 0.0046605067 0.010945032 0.09510556 0.030455451 -0.005660609 -0.06651003 -0.010089968 0.0008579493 0.018582266 -0.03527146 -0.053264327 -0.080553375 0.023802742 -0.024468636 -0.009498147 0.08554556 0.0034972022 0.013353427 -0.061287396
주 -0.020232866 -0.04889659 0.011583854 0.02725307 -0.027055115 0.021317452 -0.058524247 -0.0308313 -0.010592037 0.0011033035 0.009539382 -0.053060956 -0.0005606797 0.026751572 0.010578675 0.031746853 0.057852287 -0.00803683 0.06901083 0.010420463
최고 0.13964348 -0.13375267 -0.11957477 0.13889228 0.15979412 -0.0913693 -0.17438383 0.14597063 -0.1084154 0.16948663 -0.07638885 -0.1279642 -0.10275704 -0.16452324 0.1917072 -0.09960133 0.06676195 -0.10874708 0.124455005 -0.15305467
내 0.047620047 0.040403895 -0.014536928 0.005909288 0.006793054 0.001994873 0.059508927 0.046825234 0.04341104 0.044889394 -0.018438932 -0.0146808205 -0.0026303348 0.045720305 -0.0337122 0.023146037 -0.0065582665 -0.006071169 -0.0012566985 0.025196122
평점 0.02078248 -0.015249658 0.0084605655 0.0066811675 -0.07515297 0.02627249 -0.018769275 0.008124243 -0.051697575 0.00010202482 -0.054968227 0.039171528 0.022123052 -0.035238314 -0.008657416 0.030939717 -0.004267027 -0.049911458 -0.01051555 -0.044109102
이런 -0.012780709 0.043098573 0.026080789 -0.020166595 0.03700899 -0.021771492 -0.0023101687 0.053540047 0.06198403 -0.015293889 -0.0493309 -0.029894905 -0.043050364 0.0587703 0.035464313 0.006600518 -0.017791927 0.03102501 0.020043185 0.005938296
던 -0.014837543 -0.054451577 -0.032357633 -0.013047526 0.039151084 0.020360442 0.026614344 -0.026115673 0.031128623 0.051577475 -0.010059059 -0.041403484 -0.015777322 -0.02550218 -0.01580713 0.0044973176 -0.0053582015 0.028791187 -0.03339226 -0.045404363
어요 0.06568753 -0.003413195 -0.034194477 0.15094586 0.07298652 0.09626904 0.032336343 0.003667687 0.03107186 0.012897014 -0.023010211 -0.07100984 -0.1480779 0.029722814 0.00034497082 -0.1313852 0.14178327 -0.113536425 0.11009722 0.025656994
할 -0.006748248 -0.0122485375 -0.018283956 -0.066020794 0.04391231 -0.048013866 -0.017199432 0.051594745 0.024915306 0.017544787 -0.035916727 0.027295496 -0.04119931 0.016968712 0.06635689 -0.04057512 -0.0914548 0.052233778 0.024739442 -0.0111444015
왜 0.069724046 0.042478655 0.007958499 0.08344834 -0.043429162 0.0047173076 0.028618854 0.033333946 0.028067417 -0.04183732 -0.019359412 0.033168938 -0.027687084 0.013597435 0.03300874 -0.052382 -0.0025266071 0.005722024 0.091443725 0.052898426
겠 -0.053520195 0.07005118 -0.002051734 -0.019392638 0.00539936 0.06253548 0.039137147 -0.05918542 0.04136035 -0.06374024 0.024200309 0.026031526 0.064019 0.062576614 -0.053038314 0.09297252 -0.049295947 0.0034553786 -0.049062114 -0.0034112285
스토리 0.025923528 0.012617001 0.009707738 -0.04497074 -0.03276506 0.03156913 0.06700024 0.0137171475 0.08619841 -0.038125984 0.040406078 0.036261473 -0.033622317 0.05410504 -0.026082776 -0.010599702 -0.01994522 0.02902572 0.0068133464 0.05248064
해 0.037898965 -0.0396484 -0.003182961 0.008296051 -0.05149382 0.010455489 0.015269734 -0.02621028 -0.03627968 -0.05728649 0.051569283 0.019256955 -0.02907558 0.049096618 0.035211463 0.046940334 0.034706578 -0.035531122 -0.025477443 0.021580776
ㅋㅋㅋ -0.015169825 -0.0017269602 0.029530387 0.05470636 -0.032097854 0.027521094 -0.028340418 0.040566854 -0.059842054 0.008959141 0.016913513 0.004528833 -0.0048915735 0.021270797 -0.008127901 0.030707676 0.023341179 -0.03361685 -0.0114780795 0.027989695
습니다 0.103405036 -0.06054923 -0.03388275 0.14316976 0.0058164257 0.042281285 0.028228343 -0.04120689 0.0020269465 0.0427722 -0.02048131 -0.039237924 -0.08519816 -0.03549731 0.005931115 -0.037650608 0.062626295 -0.016367253 0.031878326 0.014163048
듯 0.017292872 -0.023540845 -0.012662942 0.0019472382 -0.041555725 0.010080548 0.0110813845 -0.018185832 0.0021812832 -0.04902063 0.02322548 0.010228436 0.05122087 0.042144448 -0.0056885276 0.07077434 -0.016457047 0.0026112539 0.016707003 -0.047037363
아니 -0.04962211 0.0005173088 0.025405517 -0.16288127 -0.020374129 0.016804311 0.101523064 -0.05424615 0.05360269 0.014571432 0.0101554 0.034582455 0.107785195 -0.03582709 0.034981776 0.050064467 -0.15773459 0.08762416 -0.047028605 0.07198367
드라마 0.047918797 -0.011262919 -0.041998193 0.11941616 0.01714131 0.01825953 -0.046154555 -0.055733655 0.01429324 -0.014814265 0.020843506 -0.009632 -0.08530936 0.024908127 0.019654987 -0.05402036 0.08650805 -0.020957056 0.122989066 -0.021925079
생각 0.09240288 -0.01314465 -0.045083433 0.07564048 0.087373465 -0.053684838 0.01844766 0.07304834 0.042287055 0.07805134 -0.044617265 0.0056209266 -0.00079221994 -0.07672199 -0.0041361316 -0.102443844 -0.016435178 -0.0641677 0.019000959 0.0069804806
더 -0.017826935 -0.015920712 -0.007511112 -0.032170955 -0.03616451 0.03218389 0.08380773 0.0108882785 0.005823848 -0.051844187 0.009189615 0.043457553 0.0025451619 -0.0035955103 0.023124332 0.023927603 -0.049951185 -0.013715137 0.07805166 0.010225257
그 0.07086424 0.005462252 -0.040943235 0.026973125 0.053312246 0.013999777 0.020887658 0.010491595 -0.029705064 0.03593086 -0.037290417 -0.03847829 -0.044346057 -0.005957866 -0.0022536877 -0.051728025 -0.006686005 -0.0335266 -0.020773767 0.0135566145
싶 -1.0073789e-05 0.055796523 0.017911378 0.036175705 -0.054919526 0.057582915 -0.053986985 -0.04532745 -0.03365455 0.004119834 -0.033031553 -0.02311647 -0.07539363 0.010233899 -0.016533263 -0.031493533 0.06313323 -0.010668132 0.014584026 -0.009063867
사람 0.05485476 -0.04666835 0.031811174 0.058296967 -0.058408212 -0.036234293 0.029762717 0.076868266 -0.020645814 0.051794127 -0.10075651 0.024215328 0.0050974856 -0.012923695 0.030133227 -0.0048576305 -0.03601603 0.013516238 0.04037604 0.021592569
때 0.018667087 0.005760349 0.013401226 0.015475827 -0.051232595 0.004508603 -0.008105783 0.045298576 0.00647999 0.042962503 -0.06731865 -0.06865962 0.0044487687 -0.0919756 -0.0062094885 0.020822182 0.021097938 -0.045888472 0.04807687 -0.015048825
감동 0.05782441 -0.04047303 -0.05481213 0.037093326 0.1249082 -0.081512354 -0.15199947 0.028220262 -0.12127935 0.098564826 -0.026135512 -0.05860307 -0.08245603 -0.107773565 0.10594102 -0.030324668 0.059163567 -0.07861038 0.029126413 -0.124657854
배우 0.022203427 0.050037142 -0.0054958574 0.04032657 -0.018319024 0.054611877 -0.0231318 0.025775973 0.043538313 0.011321858 0.040128775 -0.010363234 0.043394364 -0.03546817 -0.04008796 -0.050474305 -0.044410344 -0.0020482 0.0043427288 0.04578863
함 0.048125826 -0.0130800335 -0.01867116 0.01022749 0.0068613365 0.04589823 -0.005989695 0.0137118865 -0.011027639 0.00054277387 0.02333587 -0.022538647 -0.027004149 -0.020539032 -0.043148287 -0.025609052 0.054499153 -0.037826546 0.064926185 0.010031164
본 -0.028008364 -0.04988022 0.009226393 0.018054593 0.01645547 0.027790189 -0.03212421 -0.03903353 -0.024352336 0.06382983 -0.03269972 0.027969778 -0.05339128 -0.041297927 0.011535124 0.006796403 0.0644615 0.027251387 0.040797234 -0.0036027296
까지 -0.032719962 -0.02630691 0.031122372 0.07006897 0.029639613 0.008459676 -0.05116547 -0.041235603 -0.027572714 -0.03041095 0.045446977 -0.052050874 -0.028072622 0.00543013 0.007863783 -0.010212283 0.016714614 -0.04112301 -0.01491244 -0.00028719555
뭐 -0.0415264 0.11801639 0.038601212 0.00035560626 -0.012224137 0.028789774 0.11705524 -0.08693184 0.08985784 -0.075781666 0.029893225 0.05317397 0.060558308 0.024751963 -0.03226392 0.032839973 -0.019721188 0.030365508 -0.03904342 0.024555713
알 -0.026015496 0.024773668 -0.008392669 -0.0071234945 -0.014449032 -0.05995396 0.04645966 0.048058335 0.010491481 0.043136694 -0.047999036 0.04457476 0.0008770834 -0.009717076 0.013196514 -0.026805311 -0.0018759926 -0.00897526 -0.05232574 0.02198509
만들 0.03217228 0.055935506 0.06195121 0.08733024 0.0165428 -0.006679591 0.01290183 -0.05161201 -0.0001491878 -0.066332765 0.034104615 0.022787781 0.035831567 0.065600105 -0.0039106067 -0.023789214 0.071142934 0.056438338 0.04320293 0.04565485
내용 -0.037041314 0.040029325 0.011641857 0.016260674 0.051064577 0.048710424 -0.012798423 -0.017908428 0.048052542 -0.03226988 0.01526181 0.028636556 0.037091963 0.07905896 -0.009269191 -0.0020432624 -0.012104044 0.06489256 -0.09696845 0.05910861
볼 0.048065968 -0.037034597 0.007555186 0.016027706 0.062425546 -0.08994411 -0.008560858 0.0227919 -0.01583558 0.018664252 -0.07068093 -0.051529627 -0.055741925 -0.04772218 0.021353848 -0.047148082 0.003834954 -0.043855023 0.015124846 -0.09029898
보다 0.028754743 -0.008463605 -0.024357328 -0.016430547 -0.025666393 -0.032330953 -0.011860085 0.05157445 0.029137217 0.014622948 0.0026917262 -0.053673994 -0.022636097 0.035770115 0.0025415882 -0.04417448 -0.07760303 0.0027259837 -0.052674767 0.0076432093
감독 -0.009393482 0.007889527 0.016578905 0.067298695 -0.08989166 0.038944814 -0.030438745 -0.021227956 0.049794514 -0.111526445 0.057098158 0.03727073 0.04130483 0.123176 -0.066684045 0.082176544 0.014209962 -0.019064717 -0.0011040529 0.013746843
라 0.010951899 0.024569087 0.049986757 -0.048317615 -0.03180153 -0.07069626 0.040266722 0.055323586 0.026550729 -0.016708668 -0.020213816 -0.0021669958 0.027648618 -0.062600635 0.051239967 0.00510447 -0.06905375 0.0030678224 -0.046017732 0.031009156
재미 -0.009449758 -0.01824599 0.019755658 0.1014801 0.03428558 0.029256744 -0.10294159 0.026262462 -0.03855448 -0.0058738003 0.02826693 0.0064140097 0.027467871 0.0042586867 -0.05416996 -0.04739909 0.06601332 0.011853544 -0.020599868 0.010888102
그냥 -0.06065241 0.06253976 0.035714563 0.022109244 -0.019456604 -0.018788932 -0.060699407 -0.07898279 0.0034247509 -0.03913848 0.061097942 0.048341185 0.015785834 0.078650825 -0.044478886 -0.04002746 0.006110353 0.039619032 -0.08300563 0.0190531
시간 0.030605644 0.057687104 0.014048993 0.028068546 -0.020464709 0.07569501 0.03923644 -0.061103575 0.0887136 0.026898466 0.030984556 0.042917386 -0.034364183 0.08422903 -0.006883539 -0.064959764 0.043923974 0.05750272 -0.0066837072 0.026024474
지루 -0.1148295 0.08598606 0.14590777 -0.18914847 -0.05756984 0.09097255 0.21243717 -0.120983824 0.14097504 -0.06649563 0.1575571 0.17254503 0.15732303 0.15337792 -0.060444426 0.115519375 -0.2155624 0.1542379 -0.11887149 0.1455401
중 0.06621715 -0.012283578 -0.05012621 0.07968317 0.079558626 -0.010435597 -0.03386054 0.029731808 0.019642673 0.014531768 -0.04231445 0.016794277 -0.013454039 0.009057712 0.014838798 -0.10938793 0.018001068 -0.042690888 0.05059168 -0.024694951
재미있 0.07011206 -0.13710774 -0.1484426 0.13875939 0.06265225 -0.07183579 -0.06734777 0.13057172 -0.09468303 0.12276462 -0.06370375 -0.09825073 -0.083983205 -0.06742338 0.09395531 -0.053423285 0.06373274 -0.09792101 0.08830253 -0.10915378
였 0.0640388 -0.050526645 0.02311725 -0.027109116 0.06786035 -0.0009767003 -0.013166785 0.016851405 0.014156154 0.0023211483 0.01609765 -0.019446913 0.032890115 0.0023348287 0.039965026 -0.041924447 0.021036979 -0.06734467 0.028193753 0.026272768
잼 0.088022225 -0.051152494 -0.044297114 0.0732077 0.06818935 -0.058829032 -0.126573 0.042529352 -0.06919388 0.04560839 -0.03965803 -0.037867106 -0.042376883 0.005014433 0.06427318 -0.08567759 0.10282463 -0.075258985 0.08913916 -0.003764527
년 0.06145681 0.03822248 0.030948097 0.006595312 -0.042402007 -0.011563044 0.054719992 0.013592907 0.012698043 0.030871945 -0.011806113 -0.006663615 0.019931167 -0.012976205 0.057651952 -0.041079424 0.024405818 -0.051590975 -0.025824504 0.016237738
사랑 0.052429598 -0.0812447 -0.056305647 0.09366641 0.1362087 -0.11263609 -0.0842312 0.040076338 -0.12106746 0.045906767 -0.05187653 -0.047920007 -0.026048504 -0.08165828 0.060002428 -0.047849715 0.07046232 -0.087226585 0.0700652 -0.07454631
못 -0.009531131 0.010026399 0.014003786 -0.11317498 -0.0780405 0.065196626 0.05960969 -0.0680006 0.01911607 -0.053850845 -0.009953907 0.09135796 0.09361924 0.03843401 -0.047333416 0.080429524 -0.086289205 0.057098232 -0.075356364 0.043438796
재미없 -0.17246416 0.22335173 0.19460496 -0.18816026 -0.15127635 0.20832752 0.25664118 -0.2218557 0.17540075 -0.122092366 0.15192267 0.14099245 0.1581527 0.13267118 -0.19274202 0.2063732 -0.23336756 0.12793362 -0.14332868 0.15360174
냐 -0.06452943 0.06300086 0.092437215 -0.10148086 -0.05579501 -0.0030715864 0.112424575 -0.022682438 0.06840134 -0.09845814 0.018979512 0.05294415 0.0575205 0.006876077 -0.014692533 0.012981863 -0.12985682 0.08205192 -0.06577702 0.018122464
쓰레기 -0.15005164 0.121454164 0.1693639 -0.25857916 -0.21326715 0.13790634 0.22993228 -0.15921642 0.12575233 -0.14250061 0.11963293 0.1953091 0.17834204 0.16545515 -0.16649169 0.24834034 -0.16470943 0.16925445 -0.11024759 0.13635641
서 -0.018384827 -0.033217218 -0.04388856 -0.010138677 -0.0018463054 -0.020983482 -0.02595603 -0.026375538 0.009626868 0.017412653 0.046857446 -0.0120088225 0.052188374 0.017184298 0.022562005 -0.01592325 -0.027743144 0.012392012 -0.061377283 0.029570792
라고 -0.030827528 0.0021814788 0.007422086 -0.08519442 -0.01183872 -0.04628729 0.10350874 -0.05300804 0.045776077 -0.0368747 -0.010756689 -0.010949785 0.019198839 -0.0019005798 -0.0399738 0.016249862 -0.05823578 -0.0072045615 -0.03495998 0.029751213
니 0.028335495 -0.0069049075 0.028126374 0.014119464 -0.03920209 -0.04938827 0.07185343 0.0028019205 0.059254065 0.045013785 -0.06443474 -0.012214775 0.047473643 -0.026471158 0.06329682 0.006251277 -0.048153277 0.028394189 0.047933206 -0.020019414
면서 0.03257209 0.018039724 -0.043763917 -0.039286748 0.043009426 -0.013129089 0.03827233 0.05219082 0.028036445 -0.026945995 0.0034805092 -0.046424244 -0.010127498 -0.034936372 -0.01638926 -0.042132393 0.04586235 -0.013113935 0.0115362955 0.0062919254
다시 0.09045857 -0.025157424 -0.11168741 0.012196273 0.046669297 -0.058960155 -0.068634555 0.074240535 -0.05702753 0.117890105 -0.0989911 -0.05668018 -0.01539839 -0.023975955 0.044722907 -0.08143678 0.06569762 -0.06987613 0.0289733 -0.104811974
번 0.032982904 -0.049505275 -0.037457976 0.0243781 0.023954561 -0.023613472 0.025569303 0.018940892 0.030292444 0.06971778 -0.05189323 0.005697036 -0.02614667 -0.044435844 0.044533484 -0.0066784597 0.018122772 -0.051391635 -0.0056411084 0.02328264
나오 -0.0131697245 -0.03195626 0.0008943791 0.058597296 -0.011032413 0.010925051 -0.021100326 0.0048652734 0.050194208 -0.033233043 -0.038762156 0.0134311505 -0.009842739 -0.007586231 -0.045707256 0.014251046 0.0052436776 -0.020749155 0.03535372 0.014629154
하나 0.03753263 0.022991283 0.046477772 0.0056959796 0.042883787 0.02467663 0.03257867 -0.0077726007 0.0472134 0.019286739 0.023183942 -0.022482516 0.048892345 0.033147972 -0.013063087 0.049343478 0.027318582 -0.009939881 -0.031410407 -0.00990408
작품 0.009399295 -0.02550245 -0.016133767 0.033205085 0.043737184 0.003487781 -0.03821508 0.020924294 0.014422557 0.015524548 -0.06364902 -0.005514136 -0.0326901 -0.07030107 0.057383027 -0.009496398 -0.0045552966 -0.050176524 0.026509555 -0.016546907
야 0.051765423 -0.035134763 0.035277158 0.002567491 -0.044794343 0.0047861 0.12192162 -0.049583435 0.003699318 0.042303193 -0.017360274 0.054519806 0.009814016 0.046996243 -0.024152135 -0.02085303 0.02465911 0.04339371 -0.0046956628 -0.023497988
이거 -0.03720194 -0.027118089 0.026827486 0.010637231 0.023928002 0.012460664 0.060197707 0.034014113 0.05122772 -0.020998884 0.014144799 0.016978437 -0.010738356 -0.005954912 -0.0150825735 0.0030398557 -0.038085047 0.006671457 -0.027274538 -0.00084446825
줄 0.016834525 0.0033444704 0.0069081937 -0.1091159 -0.050079975 0.017516628 0.04564416 -0.04022067 0.033221822 0.02776053 0.018280882 0.005381804 0.083614886 -0.03541933 0.040065978 0.024536045 -0.098557375 -0.0020718458 -0.034307223 -0.029284038
해서 -0.024026815 -0.014109048 -0.045465905 -0.018271483 -0.0017962259 -0.0657255 -0.08492456 0.048562914 0.028662896 0.04840555 0.02988179 -0.018818438 0.05470967 0.034374047 -0.030108225 0.026404021 -0.021459278 0.009871834 -0.071806304 -0.011021767
남 0.047589507 -0.023561774 -0.0175412 0.0665271 -0.039625842 0.042927515 -0.025447603 0.007490999 0.028967692 0.015987383 0.043313947 0.015498162 -0.07554964 0.01999365 -0.06126264 -0.00904197 0.076403156 0.0025397358 -0.025585633 -0.0150411045
마지막 0.03720547 -0.021210572 -0.079209685 0.08536946 0.058270384 -0.031442735 0.013145121 0.047367316 -0.007754498 0.052832663 -0.0893741 -0.051282883 -0.02432046 -0.009461923 0.0010709548 -0.07260294 0.05344469 -0.09126733 0.06805276 -0.04327391
끝 -0.04011315 0.040125363 0.023087913 0.031474847 -0.062102344 0.0014019157 0.018143551 -0.005054254 0.0018192357 -0.041058384 0.03683956 0.0059141265 0.02721115 0.06432644 -0.03939008 -0.03600083 0.0070958524 0.019419037 0.048175164 0.04598792
정도 0.014581969 0.0032081576 -0.026227642 -0.00024003765 0.005825114 -0.043430585 0.052781075 0.00088711485 0.058416266 -0.010184466 -0.007582333 0.061223138 -0.041410882 -0.021180758 0.042000163 0.014025968 -0.022193521 0.033599444 -0.024832169 0.002997416
이건 -0.116985984 0.11400407 -0.0016813107 -0.06176599 -0.025927937 0.048234235 -0.015029141 -0.06224532 0.09650111 0.0053410265 0.081094146 0.051733453 0.11607742 0.08417458 -0.042361423 0.047233496 -0.13187154 0.11409451 -0.10900918 0.0052725095
액션 -0.01387756 -0.048591524 -0.03932271 0.054734122 0.031347834 -0.015522976 -0.035121124 -0.031578194 -0.031573743 -0.006562923 0.01999162 -0.051515315 -0.06891223 -0.050063822 0.015418644 0.015081829 0.07513821 -0.015043331 0.011775942 -0.019793192
개 -0.009962848 0.03978179 0.027614392 -0.04585442 -0.044283018 -0.046464294 -0.022865115 0.04795814 0.032161687 -0.025107266 -0.00087646657 -0.035764787 0.020908242 0.00407961 -0.012428292 0.019464765 0.03743012 -0.024756484 0.010621636 0.048666183
임 0.029324241 -0.03504085 0.0003424004 0.090585254 0.045774408 -0.021699904 -0.061596785 0.026168067 0.009020315 -0.047109608 0.03236348 0.027616845 -0.073207945 0.048938654 -0.02711209 0.002860693 0.03250638 0.013586652 0.0029051034 -0.01630419
건 -0.014665246 0.046410426 0.01818889 -0.045149665 0.020292073 0.017297665 0.05062407 -0.005573994 0.03593226 -0.01609299 -0.026710438 -0.012254755 0.023918292 0.031356588 -0.0152591 0.07200001 -0.051074862 -0.0046537938 -0.07874496 0.03357538
기대 -0.038963288 -0.03327196 -0.007281244 0.017078908 -0.0059834444 -0.005385877 -0.10495431 -0.04468424 -0.0003376815 -0.02360157 0.07142707 -0.03898814 0.04021473 -0.0287288 0.010648015 -0.047304373 0.009976226 -0.052412353 -0.05747277 -0.0010902028
다는 -0.001307341 0.023846457 -0.0059584947 -0.0733631 -0.042934824 -0.007149006 0.041230097 -0.05785459 -0.01782037 -0.040765293 0.027607176 -0.0511844 0.059602242 0.025116526 0.043484252 0.08712506 -0.00058198697 -0.008543119 -0.020563468 0.0041062497
입니다 0.04632369 -0.046845697 -0.02772229 0.090276785 0.016038623 0.04310996 0.040068205 -0.04881827 -0.0049258107 -0.008851928 -0.044987366 0.0009205262 -0.057229977 -0.03898412 0.05961006 -0.09278682 0.12355051 -0.023804693 0.10379314 0.01430863
라는 0.026062768 0.021934163 0.02082806 0.03226171 -0.025307681 0.02200272 0.023415936 0.047626108 0.01755662 -0.020574732 0.023736233 0.031544905 0.008136207 -0.014926301 -0.011658704 -0.05577189 0.031270005 0.019904139 0.032384373 -0.05311306
완전 0.0022266323 0.05550144 -0.018154463 0.08997232 0.037156608 -0.0020974746 -0.08065216 0.0051706107 -0.0007955546 0.04801568 0.071795866 -0.05139637 -0.042166166 -0.02277414 0.055022243 -0.11592961 0.04643639 -0.013746962 -0.00048582375 0.029277619
참 0.017072907 0.057213746 0.009514692 -0.055652518 -0.026051523 0.008594061 -0.0068310387 0.010173902 -0.016045954 0.037320953 0.02489998 -0.023231931 0.017766358 0.01203173 -0.037758023 -0.0066393754 -0.017406823 0.07928742 -0.02604195 0.009298545
많 0.040847976 -0.0049125548 -0.05534933 -0.03965459 0.042075954 -0.03635042 0.04484286 0.09500532 0.044119287 0.032612152 -0.017472183 -0.030234799 -0.044195496 -0.046957925 0.036638618 -0.0027873921 0.0046690945 0.03203875 0.06409784 -0.048268057
ㅋ 0.046488516 -0.03944085 0.021624455 0.020271452 0.01857028 0.042017378 -0.05900987 0.021564983 -0.029018503 -0.017239874 0.0285584 -0.026588432 -1.341688e-05 0.017721977 -0.009526671 -0.021907922 0.036367487 -0.080181494 -0.0017305375 -0.027631918
처음 -0.012896582 -0.031781506 0.047788795 0.01165465 0.0136670275 0.04064237 0.05543655 -0.044270627 0.037350524 0.030646533 0.020994028 0.051942885 -0.008401133 -0.03276366 -0.012175331 0.039714225 0.03368445 0.04515716 0.059344523 -0.0183257
장면 -0.039701905 0.033677116 -0.04195109 0.056944665 0.046028305 -0.030780187 -0.038639076 0.016225273 0.015813058 0.04287839 0.031146673 -0.02378785 0.0010132137 -0.002535407 -0.023194877 0.0032569792 0.05009274 0.010808149 0.0020153685 -0.014945169
다가 -0.0762708 0.042694595 0.03209713 -0.029017644 -0.009553362 0.050563484 -0.050952513 -0.015904998 0.055720452 -0.033838347 0.04215912 0.016602112 0.00056851306 0.050626367 -0.027757047 -0.016277414 0.0061919442 0.052163765 -0.09242658 0.013961591
아깝 -0.022506015 0.14852679 0.087095454 -0.04001771 -0.07595237 0.1552056 0.12391997 -0.037660375 0.1610735 -0.10348037 0.04435022 0.08782374 0.06167168 0.08172847 -0.064257406 -0.029208608 0.0069010253 0.108397216 -0.029949088 0.14869127
으면 -0.014238341 -0.022278134 0.033445552 -0.0016684525 -0.027135668 -0.0076904297 0.029419193 0.04269618 0.03511467 -0.050324097 -0.018574003 0.019223973 -0.0437614 -0.005544398 -0.015652478 -0.012577588 0.005029972 -0.026363743 0.045818623 -0.014157189
모르 -0.019338457 0.024137542 -0.04705779 -0.03205267 0.018223183 0.008097375 0.0061129974 0.010715263 -0.03544952 0.06012151 -0.021749364 -0.045090698 -0.009641818 -0.00034332578 0.058745757 -0.02112292 -0.01672415 0.024573803 -0.028525554 0.014175646
지금 0.036232166 -0.056376897 -0.01943849 0.03121821 0.0013375948 -0.082707345 -0.04446248 0.068767354 -0.014624026 0.07947744 -0.0032667858 -0.06707703 -0.062300764 -0.09529889 0.013134737 -0.02522929 0.0008885324 -0.06495722 0.052692708 -0.03218281
이렇게 0.010860413 0.066450745 0.0068886625 0.04879478 0.025018808 0.0059811445 -0.10347725 0.015271345 0.009479823 0.06976086 0.026185283 -0.055451278 -0.0011306878 0.050711986 0.019847797 -0.051455494 0.034099724 0.040320594 -0.053623594 -0.01725694
분 -0.040042095 0.05049993 -0.004309369 -0.03620749 -0.091448806 -0.004622307 0.054947324 -0.051822655 -0.025975687 0.0065283165 0.028968845 0.0435142 -0.012518528 0.013006687 -0.050586782 0.0640148 -0.04452812 -0.04067523 -0.04207202 0.069851644
돈 -0.03373842 0.08022711 0.06034342 -0.04097251 -0.14911444 0.14332874 0.09207594 -0.109109424 0.06234857 -0.1396608 0.044371933 0.13505307 0.113308325 0.076231614 -0.06732582 0.09213103 -0.07318235 0.07847022 -0.017426174 0.12299693
이게 -0.023209121 0.04080862 0.0459288 -0.06461535 -0.09334861 -0.0053343787 0.11705036 -0.004781988 0.002398857 -0.0027035559 0.015235633 0.083608724 0.016665073 0.049657658 -0.035047155 0.04685913 -0.023783915 0.00585022 0.037603594 0.07648833
ㅠㅠ 0.07880402 -0.051164508 -0.017567264 0.053079136 -0.00019649683 0.045711808 -0.0060566654 0.049939804 -0.03559077 0.020491231 -0.066304296 -0.08443507 -0.061217256 -0.04379476 -0.0012541413 -0.101174586 0.115841724 -0.021836882 0.017879132 -0.054279387
성 -0.043261364 -0.024191028 0.027635783 -0.013129772 -0.0017318473 -0.022987744 -0.007616472 -0.027413206 0.027091473 0.028102359 -0.033331975 0.028726462 0.005010371 0.03659779 -0.031853057 -0.018436914 -0.026102655 -0.034806192 0.039535753 0.02461845
느낌 0.07816752 0.059815545 0.018208878 0.02027673 0.020965561 0.01218891 0.009050697 0.035681617 0.0865205 0.04018606 -0.009620468 -0.015978187 -0.029692607 0.040334657 0.0011865908 -0.059985902 0.004767099 -0.04903703 -0.018046787 0.029219816
이야기 0.05790766 -0.03755805 0.029953739 0.0023507427 0.07268156 -0.0030872393 -0.039453723 -0.004674187 0.011986617 -0.0058795777 0.04950671 0.01787823 0.019311486 0.03239377 0.042390652 -0.09994064 -0.0005461092 -0.027433189 -0.023268506 -0.027115026
일 0.04547571 0.0077368976 -0.0018303492 -0.0120225055 -0.029330194 -0.043967552 0.030835861 0.051600564 0.0017801448 0.034339786 0.02592956 0.025303645 0.060446285 -0.029599648 0.012158243 0.03850988 0.0023063507 -0.020512119 -0.022839759 0.031158924
최악 -0.20994388 0.2717334 0.17778699 -0.24991076 -0.2839462 0.37425172 0.19119331 -0.19668014 0.28107828 -0.27932325 0.26337087 0.26808515 0.21613066 0.26591343 -0.302257 0.21749279 -0.23670368 0.22447482 -0.27126756 0.27683216
된 -0.0014346781 0.028997766 0.020067863 0.036071353 0.028016226 0.026015101 -0.0017247279 0.0047014984 -0.018590722 0.028714346 -0.05606824 0.0008463782 -0.06302537 -0.05137189 0.050353773 -0.01446203 0.083277054 -0.03913744 0.0719792 -0.035974022
시 0.05565457 -0.05552855 0.021074643 -0.032977015 -0.06435678 0.01537074 0.06409879 -0.003092232 -0.031099886 0.0020510922 -0.0050869593 0.010422397 0.041309647 0.015734456 0.0050996724 0.046065558 -0.0004485426 -0.056568045 0.019359324 -0.05534018
봐도 0.12912147 -0.04189438 -0.08691111 0.18181662 0.07004079 -0.044792794 -0.06886281 0.025048193 0.038801603 0.02651734 -0.07509502 -0.06351323 -0.085448 -0.052757125 0.0078359805 -0.08920658 0.07333186 -0.09506918 0.100115396 -0.023467202
님 0.04825293 -0.0018665199 -0.06296692 0.05369799 -0.0010551343 0.037543368 0.030340644 0.051931664 -0.07230791 -0.0004061537 0.011271907 -0.04346346 -0.039372936 -0.060401574 -0.027442344 0.03460741 0.08182692 -0.08620891 0.02069198 -0.0025820178
어서 0.032034088 0.024289533 -0.011658883 0.019801743 -0.022541389 0.02708518 0.03769724 0.056831628 0.028330436 -0.0057937643 -0.0022471377 0.0012570613 -0.028352093 -0.02817086 -0.015737908 -0.076772295 0.005403905 -0.014417329 0.044104036 -0.03883946
애 -0.044670433 0.02662688 -0.01793234 0.031118836 -0.02614339 -0.036312662 0.0026358007 -0.0585518 0.010391525 -0.066589594 -0.016683701 0.032168727 -0.00041696738 -0.008350194 0.019982899 0.045741994 -0.02327366 -0.011974676 0.014998045 -0.04545618
편 -0.021976676 -0.011521618 -0.0010837952 -0.07012617 -0.08231946 0.011751453 0.08164191 0.044157155 -0.011695918 -0.0003051972 -0.0440724 -0.053318292 0.054693904 -0.0025685674 -0.013647119 0.034641996 -0.035853308 0.041083112 0.033252716 -0.003246849
다고 -0.091303535 0.031824138 0.040326536 -0.24374019 -0.087177105 0.0018555209 0.0069356393 -0.03174369 -0.077351265 -0.07232659 -0.010811942 0.0076701306 0.14498521 -0.053320184 0.00958067 0.115501136 -0.20026296 0.014760608 -0.14023155 -0.011895973
넘 0.013710942 0.021654824 -0.07262411 0.014265808 0.05799009 0.042475846 -0.081901856 -0.009578627 0.004715855 0.03478281 0.05174439 -0.031588823 0.0077720406 -0.01759241 0.044895407 -0.05634158 0.062400788 -0.0655901 -0.0036006118 -0.039745506
인데 0.017276801 0.035762843 0.023153791 0.011378243 -0.05949032 -0.024005769 -0.035280827 0.03799475 0.026356908 0.019490011 -0.006790817 -0.0019068184 -0.021973476 -0.0034870023 0.021135835 -0.024688315 -0.01647428 -0.015941747 -0.035412952 0.022502918
이해 -0.022453398 -0.04693434 -0.010624152 -0.00010966291 -0.041526813 -0.052049518 -0.03770792 0.0053623766 -0.01071333 -0.027327701 -0.0026974024 0.003827155 0.04089916 -0.027890665 0.034881305 -0.01565268 -0.021992182 0.021140456 -0.02161507 -0.0003646953
전 0.03078607 -0.0070695346 0.040915567 -0.013772091 0.03757303 -0.026346149 0.032750886 -0.01795736 0.018189263 -0.007627551 -0.052355953 -0.04176069 -0.037385456 -0.007803459 -0.021249376 -0.017810527 0.020399384 0.026790116 0.017914616 -0.047805775
별로 -0.14339297 0.1329109 0.13052906 -0.15750627 -0.16531858 0.1405015 0.26057234 -0.1434078 0.1673112 -0.16112895 0.109747194 0.16209938 0.117540315 0.1885426 -0.16840023 0.1396619 -0.17889492 0.12537262 -0.103958055 0.11891447
걸 -0.054439273 0.0066911927 0.024248494 -0.011792779 -0.017428167 -0.00074339635 0.038261186 -0.022761285 0.005161598 -0.016981902 0.024914518 0.08428677 -0.012539275 0.034278765 -0.004707099 0.015648335 -0.015973503 -0.014090096 -0.025008831 0.060066078
그리고 -0.018525405 -0.02918271 -0.07354771 0.05331767 0.11111519 -0.05360966 -0.076884635 0.017972747 -0.060664415 0.01782885 -0.008809169 -0.0449402 -0.0540015 0.023674373 -0.024143528 -0.0636649 0.08954633 -0.050227974 0.045258738 -0.036809474
명작 0.14484641 -0.108564205 -0.14334692 0.07267633 0.09719 -0.103819415 -0.11773343 0.08330348 -0.1134257 0.06618165 -0.06551072 -0.10822587 -0.11275275 -0.11349144 0.16470833 -0.05251834 0.12131637 -0.13347605 0.11245543 -0.1790059
난 0.058988087 -0.067254715 -0.013093191 0.03867716 0.013111683 -0.010948322 -0.08443718 0.07040485 -0.037906174 0.040086307 -0.038251027 -0.059891317 -0.02065861 -0.072491966 0.010562837 -0.062749185 -0.024098925 0.0080371685 0.017906915 -0.02892819
또 0.034629975 -0.029535064 -0.041724525 0.05195032 0.048971117 0.007598725 -0.0394208 0.08419322 0.039556667 0.07422419 -0.046629705 -0.051279377 -0.09076482 0.011917804 0.03746878 -0.046140097 0.045280468 -0.042622764 0.06441518 -0.06682927
역시 0.02626736 -0.0016290894 -0.031121703 0.08401102 0.08717888 -0.045506243 -0.06357273 -0.007971706 -0.07321217 0.00962167 -0.023598284 -0.097142346 -0.059995126 0.00037943712 0.0007056624 -0.07522233 0.11056376 -0.090690084 0.039841168 -0.006648584
여자 -0.08855556 0.054904535 0.005172763 -0.02931583 -0.090545975 0.023064053 0.04214291 -0.017694812 -0.029288622 -0.036603585 0.07066288 0.055442333 0.029180286 0.031186918 -0.031314846 0.11903964 -0.03413277 0.017815549 -0.026942978 0.044164374
한국 0.045420527 -0.06681547 -0.028569775 -0.028817162 -0.01844735 -0.058472246 -0.0109673 0.010611747 -0.058022868 0.011328636 0.016996784 -0.05685589 0.022970773 -0.036507644 -0.009006634 -0.026332375 -0.019523628 0.0053430228 0.011550654 0.008001788
이상 -0.055961438 -0.024249779 -0.018579727 0.033391457 -0.0064286035 0.047924977 -0.013376617 0.020286808 0.004050495 -0.019573787 0.034783483 0.0062647024 0.050211404 0.008781991 0.032931663 -0.026678778 0.028208204 -0.013641438 0.014456956 0.0054614665
는지 -0.028983096 0.020121291 0.0011378264 0.008990787 0.0168749 0.0319575 0.004376625 -0.06421857 0.058746394 -0.07214627 0.045266204 -0.0107982755 0.0373703 0.0650902 -0.07197018 0.0009958192 -0.012071975 -0.026267488 0.004382347 0.061930306
많이 -0.020289741 0.009737077 -0.020507867 -0.0004176671 0.014875091 0.067459926 0.07869552 -0.011718526 -0.003800846 -0.038986158 -0.01899869 0.06921781 0.010945771 0.04363223 0.031157536 -0.036407594 0.027935822 -0.043859817 0.009546696 0.021619378
에게 0.06612255 -0.044234734 -0.04595174 0.015797773 0.010801902 0.02636481 -0.006507753 0.0632599 0.0010247632 0.013788581 -0.042960692 0.018730043 -0.0021218122 0.026339082 0.002274362 -0.02207706 -0.0070923762 -0.005516835 0.0043293475 0.018423893
부터 -0.045658287 -0.012165047 0.050774008 -0.050212216 0.0036642144 0.042628888 -0.0041626864 -0.024936773 0.021359833 0.034162205 0.0061918697 0.025010966 0.016718687 -0.02916104 0.019973697 -0.066137284 0.002577521 0.013621858 -0.023453677 0.012832545
주인공 -0.020352343 0.0750254 0.002586198 0.049466822 -0.029972471 0.051489413 0.049810637 0.001177919 -0.0069668894 -0.01736854 -0.001320065 0.054721646 0.037938315 -0.0009650357 -0.016755875 -0.003222559 0.057982873 0.05650798 0.025761282 -0.0045563444
받 0.039902482 -0.035089567 -0.040538117 -0.008235224 -0.017551623 0.028477272 -0.0019747794 0.02018634 -0.020243227 0.048326023 0.034513094 0.029476712 -0.008044949 0.014052694 0.007653759 0.022139795 0.0034056853 0.026607294 0.034089133 0.0076929107
합니다 -0.002842736 0.0065262397 -0.012056885 0.019928206 0.06716214 0.014368955 -0.05459436 -0.025068952 0.030786026 -0.01897514 -0.0140791265 -0.025409367 -0.024324007 -0.058222327 -0.01979727 -0.057886295 0.039067727 -0.02547097 0.06962399 -0.064278275
대 -0.001327429 0.045751598 -0.02630931 -0.05183455 0.027656643 -0.031532977 0.0025712894 -0.04645978 -0.025177944 -0.042426907 -0.031597387 -0.010543132 0.0043139504 0.04798825 -0.034363348 0.0095147565 0.026825247 -0.03142258 -0.01779573 0.025687333
두 0.044869777 0.022749243 0.02569682 0.017422933 0.039913908 -0.07097622 -0.048522368 -0.011882442 -0.03767665 -0.024258072 0.015715161 0.005568701 0.020200808 0.010995533 -0.012833163 -0.057350144 0.055759925 -0.02791513 0.05783449 -0.07325652
우리 0.039110873 -0.090804234 -0.07640875 0.013619613 0.011120332 -0.022118287 -0.0014599895 0.034204606 -0.037997685 0.011187159 -0.0823022 -0.054780304 -0.015293934 -0.07102469 0.044302933 -0.068686984 0.042229008 -0.009626717 0.02377145 -0.046541084
만든 0.02814107 0.006667596 9.991421e-05 0.04253573 -0.011831949 -0.0074843676 -0.005888494 -0.03386211 -0.02962815 0.0026645155 0.04703035 -0.0018243343 -0.010913061 -0.03598677 -0.022688372 0.015843723 0.07703697 -0.045771033 0.019400954 -0.016681327
길 0.031958412 -0.033189278 0.022312958 -0.037228227 -0.02384132 -0.0077429092 -0.0042454894 -0.032569673 -0.015768228 -0.035448257 0.023883678 -0.033163 -0.0202321 0.04450345 -0.049014706 -0.0069216643 0.054115403 -0.041981295 -0.012204166 -0.034033448
엔 0.008788432 0.006697471 0.051391456 -0.10841801 -0.07961846 -0.012113825 0.034801073 -0.015933132 -0.048946768 -0.038245365 -0.077908464 -0.029227274 0.039930277 -0.010477238 0.070528544 0.05386548 -0.051088504 -0.029069634 0.033628367 0.016545525
살 -0.0013198494 -0.045681257 -0.025567234 -0.026957238 0.038872175 -0.025402246 0.0049517457 0.020465627 -0.015005198 0.040492278 -0.035030864 -0.06523022 0.013563499 -0.0011951766 0.023919037 -0.0044121393 0.032273144 -0.043817863 -0.003675777 0.029023778
괜찮 0.063832216 -0.12796639 -0.10016267 0.10745798 0.062242202 -0.051305834 -0.103470564 0.10223992 -0.09772272 0.040516708 -0.0145236775 -0.050575174 -0.05691518 -0.030712118 0.05357391 -0.032880846 0.095650725 -0.06569974 0.07360508 -0.09808237
요 -0.015437603 0.013973772 -0.04605934 0.09484772 0.010567016 0.041982017 -0.024529241 0.037254177 -0.023355596 0.05239291 -0.027272312 -0.01764076 -0.08011988 0.01842557 0.027436985 0.020606462 0.08208065 -0.08416927 -0.0015795853 -0.044309903
기억 4.698265e-05 0.010851206 -0.020959195 0.06840505 0.096572325 -0.0027283735 -0.06202901 -0.006347054 -0.008682836 0.067662016 -0.031479903 -0.0022712986 -0.088655144 -0.0073439954 0.06865829 -0.09416392 0.025422253 -0.01115257 0.008790813 -0.027754107
ㅡㅡ -0.05500759 0.09783095 0.038575653 -0.07041319 -0.06647176 0.10271476 0.06339874 -0.06491899 0.051211048 -0.08735513 0.10436936 0.047226813 0.029958265 0.025217494 -0.041488446 0.07384811 0.021559933 0.101206504 -0.061686303 0.09927968
한다 -0.029605431 -0.025985695 -0.047126297 -0.043325044 0.042275388 0.04198652 0.03552623 0.062476132 -0.012126771 0.004871937 -0.0009375834 -0.055029646 0.044266738 0.033340774 0.005195121 -0.007047068 0.018517865 -0.0063816328 0.01930534 -0.040777493
연출 -0.04213904 0.06413449 0.030791871 -0.02761932 -0.032705065 0.04442309 -0.06684928 0.024797069 0.026827872 -0.0006906074 0.001523954 -0.03914857 0.007910731 -0.012307917 -0.03871969 -0.042394996 0.027689727 0.03932497 -0.0521888 -0.042485785
ㅎㅎ 0.057914592 -0.025423523 -0.09360454 0.07044577 0.04265794 0.0077946987 -0.04736487 -0.0064454647 -0.040789515 0.05125233 -0.010314703 -0.071384944 -0.087251894 -0.10161313 0.020431379 -0.07250619 0.046022195 -0.08683779 0.034884885 -0.03314599
때문 -0.050153114 -0.05507219 0.0343387 -0.0046563577 -0.062028192 0.006810996 0.0036842064 0.040150054 -0.039574094 -0.03637675 0.037752464 -0.022194533 0.00655051 0.039262407 0.048187934 0.017799428 0.021019854 -0.031715073 0.0064907735 0.017654987
저 -0.00992824 -0.017310824 -0.022401707 0.052781984 0.029575493 0.037138462 -0.03589593 0.0057475837 0.00630554 0.016179852 0.02929033 -0.03528499 -0.011084969 -0.0065237563 0.05152005 0.0051538646 -0.016389525 0.0069230674 -0.011560259 0.023063252
이나 -0.059319984 0.058272492 0.01892378 -0.066478126 0.011759485 -0.011739287 0.11358104 0.002995291 0.03549356 -0.057762492 0.04145644 0.0039458405 0.043221805 0.0020232033 -0.03434136 0.019145647 -0.010117169 -0.008211245 -0.051909298 -0.00076476886
재 0.015518705 -0.07773672 -0.08498998 0.037079163 0.02189814 -0.0137183 -0.0643393 0.03319375 -0.076545484 0.069054514 -0.08665631 -0.0036872057 -0.049288604 -0.06098988 0.07113268 -0.034991212 0.050209984 -0.0030608554 0.07732086 -0.07988289
꼭 0.07783985 -0.08905572 -0.04123429 0.057946455 0.085806295 -0.029780027 -0.03986291 0.07938093 -0.1303539 0.12178135 -0.10945495 -0.059812814 -0.12292336 -0.10181994 0.07482658 -0.085855804 0.04853559 -0.08086973 0.10339249 -0.13373837
며 -0.026199318 0.0022905588 -0.004757192 -0.00834785 0.045103557 0.05026137 -0.022263566 0.0132947 -0.026278798 0.030161446 -0.0070910268 0.023056848 -0.03058724 -0.028694205 0.01879177 0.034551453 0.016401242 -0.009466802 -0.032067996 -0.010189181
현실 0.01827582 -0.09464821 -0.053387705 0.014460254 0.014095782 -0.05772528 -0.02562537 0.048598837 -0.062349252 0.08212875 -0.01868533 -0.048790883 -0.08221165 -0.060532738 0.07938758 0.003996129 0.06365648 -0.0052253874 0.04947393 -0.023383498
랑 0.004211333 -0.019496305 0.050417818 -0.065632574 0.00399249 -0.045214545 -0.016689014 -0.025050193 0.011905993 -0.030702813 0.041754514 0.011999855 0.02102731 -0.024884265 0.01684484 0.041657753 -0.039046634 -0.0048736744 -0.0028722933 0.032351457
긴 -0.07459584 0.03936417 -0.03148869 -0.16926326 0.021369696 0.025458189 0.0026788616 -0.028430583 -0.0052313847 0.021179441 0.058210246 0.036748342 0.055510975 -0.017640358 0.06871521 0.029989015 -0.14308952 0.04491671 -0.11898316 0.04072605
무슨 -0.067760654 0.0944319 0.035312947 -0.0023762523 0.022168947 0.014845727 0.07424961 -0.03570925 0.080243394 0.002000206 0.06458799 0.07263145 -0.0019426697 0.030970734 -0.085321344 -0.0070618046 0.014977156 0.07016255 -0.03650158 0.02127554
내내 0.047353957 0.026305737 -0.024125308 0.08372999 0.04837301 0.07467664 -0.027859753 -0.01699224 0.04225552 0.025901964 0.0042376937 0.030612396 -0.08013037 -0.018328523 -0.04269479 -0.08393667 0.029838165 0.011125806 0.016295303 0.03846307
죽 0.0138805285 -0.03681201 0.0022597914 0.003046722 -0.020658806 -0.016890405 -0.008702435 -0.051732935 0.02157741 -0.041786484 -0.01714734 -0.005040872 -0.04565757 0.029391412 -0.033479556 -0.037221342 -0.001964236 -0.04243117 0.034372658 0.028693363
결말 0.014192772 0.02737828 0.037005596 0.05277381 0.037226293 -0.048953556 -0.022990376 0.071985625 -0.02921052 -0.033403754 0.01515702 0.029313222 0.014701992 -0.031398434 -0.029356921 -0.038900647 0.014558126 0.018578093 0.014089127 0.017345034
남자 -0.010739305 0.006475943 0.013299753 -0.029075695 0.008921615 -0.025916044 0.055650286 0.013267502 0.029672012 0.01343914 0.0042990427 0.005115397 -0.052678227 0.035423998 0.03690524 0.025086125 0.00534014 -0.012539431 0.012463349 -0.024006175
전개 -0.036828734 0.037982192 0.0023876536 0.0037338482 0.028807875 0.02400782 -0.03762764 0.015353022 0.050703436 -0.013101221 0.061988663 0.035323136 0.03061402 0.03160589 -0.07465371 -0.037810575 -0.05403528 -0.008277218 -0.0014570035 0.0076396223
마음 0.10759249 -0.056161247 -0.11595534 0.012802398 0.057742514 0.0027090595 0.013782331 0.10176574 0.004397296 0.06955081 -0.049471635 -0.058548037 -0.049220778 -0.033916123 0.074968204 -0.06329987 0.02621547 -0.04214739 0.08895107 -0.012235424
세요 -0.0433127 -0.023485942 -0.029359397 -0.0030670464 -0.043098446 -0.01370423 0.0031260422 -0.008336344 -0.030496659 0.024056729 0.027358301 -0.032061487 0.012895995 0.029597063 -0.028132418 0.00937183 0.043305103 0.049069226 0.034462627 0.030310689
소재 -0.056672532 0.024716577 0.042140752 -0.11039094 -0.06666393 0.028182149 0.010284809 -0.081620164 0.057286825 -0.029221356 0.11848673 0.05228322 0.091203324 0.094785295 -0.015384362 0.034189735 -0.09237133 0.026907312 -0.12136759 0.03514166
속 0.0021918255 0.021672579 -0.053109296 0.017183002 0.02764793 0.0050414302 0.050401665 0.0038887574 0.05045419 -0.0069591063 -0.024302224 0.033320785 -0.046615276 0.0095264 0.016991135 -0.02815036 0.035141498 -0.02817635 0.038663607 0.01518512
공포 -0.029447192 0.02840019 0.045307368 0.06103415 -0.009594449 -0.0043140114 0.03729035 0.017234867 0.025836581 -0.023526778 0.06330822 0.04124366 -0.004496998 0.088748984 -0.030465761 -0.0033415116 0.024476998 0.03774857 -0.008423343 -0.02414805
아서 -0.027803717 0.04285232 -0.032548137 0.033819277 0.0135053545 -0.044325594 0.07843527 0.026207708 -0.0053528626 0.019690715 0.055103295 -2.0641803e-05 0.03871748 -0.016034653 -0.049097527 -0.028698914 0.032484055 -0.0074098287 0.03969324 -0.029890744
데 -0.017934 -0.04293567 0.0003657266 -0.020514894 -0.050706 -0.007892428 0.025515566 0.035717357 -0.0005540558 0.011120232 0.020825565 -0.027719287 0.010644358 0.007985423 0.005979471 0.034462195 0.04667516 0.023655249 0.01387262 0.030357689
다른 0.014910821 0.034820452 -0.044233527 -0.043778513 0.0058366167 -0.049060266 0.03774463 0.006891837 0.012765047 0.015180381 -0.05059843 -0.039466713 0.023381675 -0.021266256 0.01456238 0.019111797 -0.021289965 -0.015425018 0.024217267 -0.0525506
인생 0.05397533 -0.0543933 -0.11273015 0.010084543 0.024628155 -0.12080455 -0.029861912 0.059316047 -0.050726462 0.077842206 -0.08577598 -0.06800144 -0.025870364 -0.05998303 0.054178387 -0.065559104 0.016109405 -0.08224399 0.07446542 -0.08857802
씨 0.051826518 -0.012740908 -0.0017320737 0.014222154 -0.05342785 0.02551038 -0.008638368 0.0025191691 -0.026128445 0.017047562 -0.0069616586 0.018347908 -0.06499855 0.047213577 -0.02233481 -0.036014333 0.0010533109 0.026312824 0.011849372 -0.013693416
짜증 -0.18264472 0.12957068 0.15791197 -0.15264028 -0.10012592 0.10549268 0.06029154 -0.11250215 0.1582918 -0.10001329 0.09880303 0.09053695 0.17771251 0.1576349 -0.13970412 0.15496522 -0.14787823 0.116995625 -0.2078839 0.13959748
뿐 -0.035663784 0.067814566 -0.009584635 -0.07848405 -0.0010430324 0.021008944 0.012109244 0.0020042448 0.06883047 -0.02752907 0.056325696 0.04504784 0.07982932 -0.029868564 -0.007310807 0.042945642 -0.060356192 0.037145372 -0.06393143 0.0521811
짱 0.07923641 -0.11826534 -0.12257865 0.12812695 0.06728702 -0.07495848 -0.13263787 0.09869894 -0.14832692 0.11960225 -0.03765648 -0.081571564 -0.076986626 -0.09625649 0.06755217 -0.06863684 0.17350382 -0.084586315 0.11117641 -0.0627594
은데 0.0018981256 0.03497863 0.013133672 -0.077211805 0.01050215 0.008863223 -0.059395943 -0.022773579 -0.039744604 -0.0179944 0.039211676 0.029859394 0.02299682 0.013861268 0.042943675 0.04197491 -0.006473166 0.020051146 -0.014402724 -0.006699793
아요 0.10716767 -0.04458124 -0.0032741392 0.032908503 0.0075161983 -0.0482616 -0.046456352 -0.04203243 -0.013212929 0.014726425 0.021164747 -0.022081014 -0.043186966 0.023288153 0.034425236 -0.027416036 0.07966773 -0.06276896 0.106865555 -0.06741076
아이 0.02337309 0.032515675 -0.02177771 0.05099192 -0.02493605 0.018389663 0.06751316 0.03193266 0.05800448 0.026428869 -0.03648646 0.02047736 -0.0261855 0.014813993 0.026639221 -0.056551937 0.059507176 -0.0061747995 0.007182014 -0.02229736
필요 0.095380716 -0.063918136 -0.09908225 0.0610864 0.029466288 -0.09166777 -0.038159285 0.1130758 -0.123177364 0.08125337 -0.1363216 -0.08953862 -0.0684939 -0.08751194 0.145433 -0.05457186 0.12880696 -0.13539028 0.11868432 -0.052350592
유치 -0.098078966 0.1422955 0.118383646 -0.08662426 -0.058810197 0.12571746 0.1354833 -0.06863137 0.10822669 -0.01682798 0.08661019 0.11863556 0.061309528 0.043329395 -0.105140805 -0.00869605 -0.070344165 0.12065507 -0.056127634 0.1264111
가장 -0.035429396 -0.027459104 -0.041238934 -0.02840635 0.030535296 -0.010616853 -0.020511154 0.03782784 0.022232814 0.034123883 -0.055807523 0.009978928 0.01518671 -0.005860898 0.042362273 -0.06647308 -0.0067585623 -0.038562115 0.03272156 -0.03913695
음악 0.06602973 -0.064052336 -0.021512372 0.0030583567 0.08686378 -0.0029321217 -0.029825144 0.04650882 -0.014204135 0.08224825 -0.010227462 -0.03361472 -0.05714566 -0.069666386 0.067525655 -0.06338288 -0.03956558 -0.021557847 -0.00039564853 -0.05648855
일본 0.0003972432 -0.0003715758 0.021260532 0.0140394885 -0.08417271 0.06801257 0.06772078 -0.040309872 0.051730406 -0.0016572782 0.04560568 -0.0013982821 -0.00020958399 0.046132494 -0.0418152 0.031707246 -0.020313196 -0.006344328 -0.025925143 0.020032788
낮 0.12221503 -0.08136115 -0.085461006 0.17797709 0.07472658 -0.08841716 -0.055897098 0.13760687 -0.071398504 0.10697488 -0.11820444 -0.14327167 -0.109242044 -0.084791996 0.07851511 -0.14714338 0.08672046 -0.14717233 0.14171156 -0.16055971
오 0.06550525 0.019720422 -0.046251606 0.04674469 0.04473567 -0.0056524724 -0.0057282955 0.018404165 -0.007720622 0.026518479 -0.030227529 0.017244171 -0.07248434 0.022630068 -0.01373294 -0.07466409 0.016265772 -0.036984008 0.041544806 0.039753463
반전 0.049075488 -0.030479252 -0.016597603 0.06548203 0.040210377 -0.021007802 -0.059883155 -0.0045971395 0.008985788 -0.0020130463 0.013311175 -0.057977024 -0.06393838 0.015934363 -0.0018093376 -0.081521265 0.04152571 0.0036256665 0.06146079 -0.025621485
수준 -0.084484056 0.102716975 0.030280722 -0.08599395 -0.10265164 0.0017890482 0.11505605 -0.06521542 0.05785525 -0.03129789 0.04758334 0.057091363 0.048138045 0.016055975 -0.05450306 0.1215262 -0.10075364 0.03799029 -0.064903356 0.1002726
웃 -0.010665358 0.03159673 0.017467717 0.028086113 0.037504245 -0.06000468 0.01615837 0.020740641 -0.026613185 0.05134444 -0.035258576 -0.015690632 0.016579583 -0.021863345 0.01204912 -0.06211375 -0.017139737 0.0046887984 0.022107013 -0.012663188
다니 0.06577064 0.018370355 0.031262446 -0.0042165085 0.045152247 0.04442477 0.01435758 -0.035577513 -0.015907597 0.02927757 -0.019298458 -0.0013338039 -0.003884194 -0.0019293954 0.00012302496 -0.018857976 -0.00022179988 0.03931994 -0.010643418 -0.0016259433
매력 -0.014206732 -0.039777655 -0.035342842 0.0038324906 0.051266108 -0.03487449 -0.07005573 0.021694498 -0.11122433 0.06138019 0.027494289 -0.12533827 -0.0032625492 -0.0827229 0.05748959 -0.028709987 0.10018237 -0.04580508 0.049655378 -0.0813322
별 -0.025406782 0.024886666 0.020589495 -0.06765758 -0.014525418 0.07932994 -0.012916203 -0.048440702 0.01963596 -0.03526245 0.025457693 0.06996118 -0.007473846 0.020537669 -0.048319235 -0.0037406615 0.0049299826 0.03491563 -0.031781908 0.06400661
인지 0.06562499 0.062472153 0.027023876 0.018318012 -0.024131265 0.06772182 0.053263005 0.01563663 0.07001306 -0.021522723 -0.056022134 -0.019219045 -0.019158676 -0.005560917 -0.058315482 -0.018489445 0.038496688 0.045350485 0.054389097 0.06999268
맞 -0.0063291113 0.03229411 0.054647364 0.0024852792 -0.05057644 -0.019145496 0.092343874 -0.034871828 -0.026290862 -0.06447414 -0.012230074 0.043300185 -0.004439531 -0.004753333 -0.03911263 0.035361033 -0.048396792 0.01665691 0.0266088 0.052315105
가슴 0.12232831 -0.08278078 -0.0850226 0.15310174 0.033383965 -0.062194295 -0.080676325 0.07339924 -0.06559102 0.103421316 -0.101918474 -0.039539106 -0.11181524 -0.07936099 0.021063944 -0.10429174 0.06811308 -0.05956308 0.04568482 -0.102834925
없이 -0.0011598642 0.0074578244 -0.023748593 0.019585004 0.042543802 0.04821219 -0.030688671 -0.0041284575 -0.002552321 -0.022284174 -0.0010470543 0.05601306 0.04436796 -0.034372736 0.0021433379 0.018278562 -0.056309056 0.062418465 -0.01644426 0.030078622
원작 -0.09502343 -0.006752106 0.06353819 -0.08750214 -0.05309769 -0.007984483 0.023912976 -0.07442208 0.011788833 -0.074343234 0.03879617 0.072827235 0.017295692 0.04164601 -0.0034623365 0.042814605 -0.030791374 0.04721467 -0.04399674 0.01892203
인간 0.06712532 -0.038421627 -0.021440791 0.03838582 0.059797905 -0.06565794 0.0039254497 0.0075728483 -0.04352708 0.085859284 -0.047679875 0.0024988079 -0.03702592 -0.017632542 0.09160143 -0.031052226 0.0081381565 0.0058012893 -0.0016707412 -0.010333161
굿 0.073007084 -0.114725426 -0.081655726 0.08501425 0.14095476 -0.14213432 -0.1361619 0.1055284 -0.18621637 0.124192074 -0.14228857 -0.19163159 -0.13943174 -0.14837475 0.16466697 -0.12916405 0.0971969 -0.114039116 0.110174045 -0.1547385
높 -0.014235978 0.09155248 0.07431715 -0.019050524 -0.106935054 0.01807621 0.018575769 -0.058081415 0.10034567 -0.027457526 0.024366308 0.04343843 0.047087952 0.10563517 -0.07025117 0.0772389 -0.062167674 0.08702777 -0.048673555 0.020190509
ㄷ 0.019319545 0.011097444 0.012448379 -0.009267677 0.053653546 0.01728724 -0.002425049 -0.014403087 0.007839423 0.032587416 -0.006553716 0.0031890913 -0.006694787 -0.023118973 -0.011656091 0.03161991 0.011911394 0.008738344 0.04830337 -0.04435617
밋 0.08306502 -0.040311974 -0.104682356 0.06360653 0.03928935 -0.05810632 -0.058783174 0.13697182 -0.045616332 0.07409204 -0.038450956 -0.055058483 -0.042771436 -0.043829855 0.038567554 -0.09517212 0.087744944 -0.1273668 0.05662487 -0.043594096
만드 -0.012089055 0.036425516 -0.052254688 0.10291186 -0.0065379585 -0.04392045 -0.09039821 -0.055260275 -0.029561179 0.036165033 -0.027939769 0.02749799 -0.040328644 -0.008970507 0.0045199157 -0.017446104 0.010367284 -0.005299033 -0.009914523 0.008256459
눈물 0.11794584 -0.11260517 -0.12824132 0.12038414 0.13324077 -0.06904355 -0.05279799 0.06070111 -0.076524876 0.042882733 -0.027272094 -0.04774611 -0.056598738 -0.048942942 0.09961051 -0.07780956 0.12954357 -0.095040776 0.074774705 -0.11640444
급 -0.03848212 0.04519263 0.027692122 0.03582743 0.0067899628 -0.0031468805 0.016071863 0.011076089 -0.020537026 -0.012813009 0.022849863 0.038699456 0.03049359 0.026184695 -0.03889944 -0.02191064 0.026126336 0.028414488 -0.0014512258 -0.0033007613
보여 0.019223696 -0.012866967 -0.040866654 -0.010081655 -0.02508368 -0.04986846 -0.025568817 -0.048198804 -0.036290735 -0.038005013 -0.0067574 0.02809758 -0.010636665 0.009531203 0.0076333154 0.026839776 0.047749855 0.03712528 0.03645016 0.023511557
준 0.027583653 0.021574514 0.021112666 0.02585453 0.007782069 0.019288726 -0.009625765 -0.03058533 0.012659855 0.021914113 -0.0021737404 -0.048739556 -0.06990853 -0.05319256 0.0085864365 -0.035721134 0.09164224 -0.013694525 0.070201546 0.011790982
찍 -0.084157094 0.012300219 0.039542127 -0.012672404 -0.08816697 0.07228972 0.08298296 -0.03248364 0.038027573 -0.09089076 0.09378568 0.024461903 0.010785083 0.0861453 -0.055804625 0.018705014 -0.04184705 0.06636051 -0.048914127 0.050195973
인가 -0.035510723 0.020087412 0.010023945 0.024112914 -0.04654045 0.05021074 0.06663121 -0.007073606 0.045415644 0.010514277 0.043241445 0.021361468 0.031893607 -0.009800195 -0.022536399 0.0009430186 0.035855293 0.0435079 0.02413972 0.07458699
노 -0.19369806 0.13634503 0.13090077 -0.18184403 -0.17175065 0.15242809 0.13612384 -0.11501311 0.15660828 -0.18581003 0.1727175 0.20786718 0.21576329 0.20236479 -0.16078007 0.1705905 -0.14581352 0.10913818 -0.13404529 0.14813995
코미디 -0.054673675 0.057353407 -0.012868056 -0.010993081 -0.04559646 -0.022567183 0.05444231 -0.05536028 0.021591764 0.003482269 0.048387688 0.05445401 -0.015201759 -0.019574344 -0.027329618 0.041733652 -0.010373511 0.013345669 0.016277025 -0.0016606181
신 -0.017252507 -0.021000162 -0.02129729 0.008955832 -0.041636385 -0.012117197 -0.008373341 0.020081231 -0.03630298 -0.00073253707 0.010126304 -0.013054757 -0.03609826 -0.058066387 0.056255464 0.030273821 0.011415604 -0.019991936 0.057900418 -0.032186247
용 -0.0010059068 -0.011585465 0.07956565 0.041874584 -0.035119303 -0.007220579 0.033071585 -0.025142657 -0.008200073 -0.020811707 0.05893117 0.0398749 -0.023092717 -0.014077068 0.014798615 0.06295258 -0.04468495 0.020901414 0.04068237 0.07438677
모든 0.08159874 -0.028361538 -0.049585782 0.08369132 0.012599981 0.007064143 -0.0015476694 0.08189613 -0.0030929784 0.010707081 -0.06481509 -0.065689154 -0.04165035 -0.0016964478 0.033320874 -0.031604085 0.021979868 -0.02331287 0.034423053 0.0043210792
마 -0.0406252 0.008386099 0.027549166 -0.022890195 -0.06393587 0.030593004 0.11242515 -0.022980835 0.07223819 -0.02625534 -0.016832268 0.024719005 0.053556256 0.09094863 -0.0062511507 -0.010806067 -0.013863614 0.03315794 -0.07929068 0.020249669
화 -0.034418914 0.039981283 0.05387088 0.091819555 -0.035503376 0.0057904534 0.03225862 -0.04800753 0.052203298 0.048323568 -0.03643963 0.04526558 -0.012892405 -0.010446953 -0.012173444 -0.08241639 0.064463735 0.0057889703 -0.016181687 0.050822478
추천 0.06053103 -0.04782439 0.011617298 0.10031538 0.07034377 -0.042639326 -0.03431938 0.035332777 -0.054312255 -0.0036869645 -0.05835609 -0.054909814 -0.05406938 -0.037859898 -0.007251556 -0.065127574 0.097038046 -0.0615063 0.08050778 0.019321645
아직 0.054960836 -0.030097887 -0.06368506 0.039280407 -0.009959407 -0.010541984 0.009524348 0.05844391 -0.015473097 0.03286217 -0.053208638 -0.043999985 -0.058685694 -0.046628393 -0.0005895775 -6.375073e-05 -0.007357307 -0.07981485 0.019109 -0.068804115
아닌 0.01635521 -0.004169673 0.03725637 -0.09840101 -0.07260448 0.04591336 0.09093484 0.008155896 0.033635277 -0.050349217 0.020924255 0.047648724 0.03121253 -0.0061617987 -0.041291356 0.09146552 -0.101356804 0.012233645 -0.05087498 0.0503405
처럼 0.010850896 -0.026654867 -0.029559584 -0.016560627 -0.016693324 0.027978323 0.04025958 0.016196512 0.014664469 0.0035564941 0.0009110499 -0.006253398 -0.0383532 -0.03333063 -0.036503043 0.014449225 -0.013227329 0.013323941 0.020364663 -0.019627754
쓰 0.016050508 -0.02933434 0.04621396 0.04061954 -0.034775726 0.040415276 0.04411062 -0.052018214 0.027546024 -0.052544463 0.049198713 -0.013065961 -0.0025309548 0.06624356 -0.04907143 0.015663 -0.00782406 0.018848112 -0.05384219 -0.018721562
눈 -0.022568017 0.016970461 0.0074947756 -0.046289872 -0.0017170511 0.01458781 0.042699747 -0.00835913 0.012637825 0.007593702 -0.022308895 0.045168485 0.043965567 0.042126548 0.05557197 0.027600056 -0.0111949025 0.023052676 -0.018287549 -0.03816754
자체 0.058630727 0.04210724 0.019572128 0.072135806 0.04081047 0.031571634 -0.064133346 -0.038769595 0.0018051309 0.047208104 -0.021133007 0.03298758 -0.019970207 0.03668689 -0.016803721 -0.10712127 0.073770806 0.027515689 0.019110221 0.041027468
울 0.125099 -0.12561573 -0.06758216 0.079426244 0.02199376 -0.051628146 -0.020344736 0.04719164 -0.11659878 0.048168022 -0.10114311 -0.053193964 -0.11722545 -0.050452475 0.072709695 -0.050605495 0.112389624 -0.13535134 0.13243826 -0.11972332
몰입 0.07814366 -0.06101036 -0.07002622 0.10495593 0.051524833 -0.075104035 -0.11876909 0.072157055 -0.012618108 0.062118165 0.024104679 -0.02091976 -0.06860602 -0.036576163 0.081945956 -0.08098999 0.020047301 -0.06829762 0.028385092 -0.08508371
대박 0.043746464 -0.08870702 -0.12283024 0.12668598 0.11021407 -0.02937414 -0.042548653 0.12360484 -0.087933704 0.09399216 -0.036749884 -0.10198681 -0.049740776 -0.0811859 0.1276322 -0.04693852 0.082773134 -0.10376422 0.107343875 -0.08630434
란 0.008923407 -0.017092392 0.029387379 0.03266921 -0.011483613 0.022291357 0.0005097939 0.013797222 -0.0009067258 0.010601036 -0.059284918 -0.039774846 -0.05957021 0.03826979 0.009732768 -0.0421034 0.02799754 -0.050997213 0.015905477 -0.023652012
스럽 -0.017605733 -0.015774561 -0.00948054 0.013417453 0.04545437 0.019669818 0.04069013 0.0077176443 0.011908182 0.030964348 0.016113566 -0.02822822 0.02836771 0.02315742 0.0017552874 0.016436366 -0.00667059 -0.032715548 -0.024438396 -0.04022825
몇 0.028949324 0.028702972 -0.06125151 0.02340116 0.022918185 -0.0049174787 -0.0702478 0.05346291 -0.010064295 0.07651078 -0.009371425 -0.036684707 -0.027646698 -0.00883301 -0.0034778905 -0.05269046 0.024012312 -0.03138189 0.046912078 0.020220239
을까 -0.042987674 0.009529965 0.0076015745 -0.035392683 0.018255634 0.0154553875 0.024689652 -0.069575705 0.022223068 0.0106792515 0.09389769 0.068767436 0.04712177 0.010762082 -0.039062895 -0.022625286 0.012721218 0.016329309 -0.04785286 0.017364055
실망 -0.13048555 0.13538727 0.10440233 -0.15500246 -0.13091451 0.12816337 0.20183328 -0.10576256 0.21811138 -0.15203361 0.17105813 0.19867404 0.1085862 0.10698475 -0.17515215 0.16679104 -0.14421073 0.1398563 -0.18367706 0.121221
대한 -0.0013638323 -0.062452078 0.007961498 0.04164866 0.008785167 -0.073861934 -0.0017983463 -0.020842392 -0.03356389 0.03837664 -0.06781972 -0.012547231 -0.03907027 -0.07050795 -0.020119721 0.04284638 0.03599096 -0.053692058 0.058410276 0.0038278415
는다 0.084926166 0.03152614 0.031783104 0.09024748 -0.012436215 0.060325634 0.07987132 -0.04241888 0.039891455 -0.0138304625 -0.02096015 -0.004620061 -0.077231064 -0.005569158 -0.017005395 -0.005084817 0.018001167 0.023661194 0.004598108 -0.026525935
여 -0.023279136 -0.008370608 0.03145421 0.014135079 -0.05114175 -0.03187693 0.011914952 0.032883793 -0.035391986 -0.009792534 -0.05157067 0.0368636 0.023332631 0.024187844 -0.030206257 -0.00850954 -0.0148305455 0.02085496 0.02748522 0.041272115
그런 0.0114548765 -0.0485142 0.009410485 0.0011112798 -0.054383036 0.027796766 0.04769473 0.0451445 0.022590958 -0.0036322633 -0.01986261 0.0337584 -0.00084070093 0.03797999 0.022879262 -0.028007157 -0.007512696 -0.023970025 0.0070717395 -0.009566768
죠 -0.024011895 -0.06235978 -0.044804383 0.043273937 0.007865346 -0.055267133 -0.030101225 0.06933954 -0.01741616 0.015150138 0.011478009 -0.036102768 -0.04856038 -0.036491547 0.04014202 0.025478018 -0.020561611 -0.049491517 0.065523535 0.005617614
솔직히 -0.044027977 -0.023255039 0.061418097 0.013451731 -0.006279787 0.030050566 0.017112322 -0.008860098 0.015101782 -0.030370932 -0.025373265 0.05838386 0.050278906 0.014633376 0.012420221 0.011365226 -0.021476997 -0.026814507 -0.018023027 0.04070001
캐릭터 0.036249943 0.07120854 -0.015490028 0.07088131 0.05832425 0.014048335 0.025957312 -0.031134173 0.002066738 -0.033549 -0.007611804 -0.028649693 -0.043022063 0.016622853 -0.016963126 -0.07510811 0.07815012 0.017656008 -0.0566688 0.060739506
아주 -0.044026542 -0.037424594 -0.028489152 -0.031399928 -0.042304303 0.011342707 -0.0026571206 -0.010259343 -0.058102317 0.014695188 -0.00932668 -0.0011654636 -0.02409962 -0.004701435 0.023503432 0.0023897002 -0.019807832 -0.032621127 -0.024337135 -0.014818881
모두 0.031541914 -0.069119476 -0.011241602 0.011240994 0.07269043 -0.053848576 -0.085003555 0.047204137 -0.045072157 0.06587377 0.003728839 -0.037020706 -0.05650924 0.0054970896 0.063055 -0.076360404 -0.027274314 -0.026640693 -0.0066678915 0.01986682
전혀 -0.046750415 0.06808413 0.037886873 -0.089806326 -0.045868352 0.013926875 0.05746441 -0.08246087 0.006508641 -0.030324407 0.013148386 0.09505876 0.0823528 0.019791072 -0.02403155 0.088358924 -0.07876784 0.033146847 -0.046011798 0.07681858
가족 0.035311773 0.013665319 -0.06167191 -0.04659812 0.07270641 -0.008237595 -0.060074497 0.074395396 -0.07641287 0.056406856 -0.0060781855 -0.07458061 0.03157003 -0.02603023 0.038691998 -0.025393263 0.032082953 -0.025529025 -0.011278482 -0.04481473
여운 0.17415655 -0.15243815 -0.118482076 0.14845318 0.15445225 -0.22030766 -0.11145563 0.19414052 -0.18380186 0.11973773 -0.09758324 -0.18994845 -0.17290996 -0.19120505 0.13941032 -0.17332289 0.22084475 -0.13575208 0.127456 -0.118029766
건지 -0.0025235654 0.06339571 0.0771245 -0.010582026 -0.06688022 0.07170003 0.07727836 -0.05919094 0.022475349 -0.018456856 -0.011815059 0.091534406 0.047855105 0.0060300827 -0.0277267 0.0007648988 -0.041517306 0.03155392 -0.04755678 0.001962948
연기력 -0.0051022065 0.012642266 -0.0021589128 0.05609268 0.0048668985 0.05621681 0.049822174 -0.0030453682 -0.008100033 0.005767814 0.031048128 -0.035680007 -0.004579427 0.02097732 -0.021634594 -0.02420076 0.017779034 0.03630662 0.0027544356 0.009407364
될 0.01620021 0.014993008 0.03906791 -0.045148924 0.019640377 -0.02309032 -0.01981483 5.5078126e-06 0.027145857 0.04368932 0.027828857 0.049804818 -0.013953307 0.019900724 -0.019909795 -0.0011377304 -0.0038071042 0.050015755 0.046859723 0.04174346
다면 -0.010000991 -0.023247033 0.0063666757 -0.090164125 -0.0071393508 -0.03824069 0.07110821 -0.020872345 0.035419293 0.011366748 0.023617528 0.06371618 0.009963435 -0.008409731 0.0038411967 -0.0016404988 -0.031334538 0.05990999 0.0008691526 0.055237968
뭔가 -0.028887916 -0.012351324 0.013711044 -0.008617388 -0.009806619 0.018425448 -0.03020154 0.027964203 0.062543646 0.018074673 0.089942805 -0.020196823 -0.014497374 0.03290607 0.016882027 0.0022412634 0.012339959 -0.02128418 -0.0075997077 0.06870299
그래도 0.048160493 -0.053006236 -0.01067931 -0.038513534 0.02863362 -0.06983211 -0.11841749 -0.03961326 -0.052003615 -0.01508724 -0.0026123084 0.004431624 0.0049225427 -0.023351775 0.042455096 0.04654056 0.073897325 -0.058377713 -0.034848087 -0.03510342
나라 -0.046638533 -0.029136399 0.0029103425 -0.050349485 -0.032233763 0.0019792763 0.0251686 0.024340296 -0.03850508 -0.04957441 -0.0022030019 0.0043072146 0.03580909 0.03726755 -0.0043350146 -0.016532304 -0.018081198 0.029668411 0.041110218 0.04295207
후 -0.04584319 0.028126955 0.026252713 -0.054176643 -0.083106905 0.029139778 0.0047630724 -0.036819477 -0.036839727 -0.039494444 -0.020547934 -0.0042124507 -0.010111911 0.010548585 -0.0023063081 0.02787358 -0.0661274 -0.0030432618 0.042427525 0.029785195
시리즈 0.0019332165 -0.043190155 -0.05420701 0.08350674 0.047805622 0.020899946 0.004676553 0.0031557241 -0.0008469624 0.014706749 0.003084791 -0.06194844 -0.014426739 -0.043695904 0.0013295016 -0.032618746 0.00015587975 -0.03719496 0.06313508 -0.060031597
ㅎ 0.02484972 -0.050250117 -0.015059061 0.028327387 0.012021897 0.025216555 -0.061508317 0.028883435 -0.013410363 0.026894437 -0.068597846 -0.052150656 -0.087345414 -0.030989613 0.038132165 -0.07894708 0.06022472 -0.08112122 0.10259857 -0.0075461348
근데 0.0651602 -0.050156973 0.010173119 -0.014769329 -0.044089716 -0.07510402 0.0022751729 0.04410571 -0.07860942 -0.006462894 -0.058591016 -0.02419724 -0.010675185 -0.073611096 0.060652155 0.0037141102 0.04931334 -0.010588154 0.05705983 -0.06599392
표현 0.082573965 -0.053614825 -0.038501054 0.056976195 0.03151384 -0.118360706 -0.06936429 0.014089803 -0.09238142 0.10271914 -0.052938078 -0.028422834 -0.08016074 -0.09526674 0.063533366 -0.03974175 0.08024953 -0.059850123 0.0015207776 -0.098477766
모습 0.03671093 0.020728681 0.0070750816 0.026601922 0.052123502 -0.030646509 -0.045562632 -0.01188322 -0.009220081 0.019364992 -0.004034965 -0.013048477 -1.607777e-05 0.027028024 0.006568738 -0.040361207 -0.018884119 -0.037262786 -0.055469304 -0.0008630742
계속 0.06743 -0.020003451 -0.08302848 0.063870326 0.09914073 -0.0061724116 -0.10232863 0.016987363 0.033523954 0.004342235 0.0016059411 -0.05493271 -0.040573217 -0.025959391 0.05773066 -0.08561683 0.11779592 -0.0190232 0.04524214 -0.043343216
작 0.013572224 -0.044683203 0.034971695 0.039655607 -0.01786057 0.0048064757 0.06713586 -0.0001869519 0.05211876 -0.01335913 -0.024814917 0.04845411 0.011029384 0.046621703 0.008850862 -0.068263054 0.0463233 0.027752906 0.0018721494 -0.01934389
공감 0.025680304 -0.005857831 -0.030607607 -0.007124538 0.0026538281 -0.026085965 -0.1008225 0.040951338 -0.064903475 0.032066476 -0.004243893 -0.017186228 -0.01778194 0.009647668 -0.034536928 -0.01551009 0.08577785 -0.03407018 -0.027587889 0.018652368
먹 0.0035336232 0.023860583 -0.018183768 -0.10271525 -0.031192103 -0.00078636815 0.027486686 0.035948463 -0.01314366 0.015511785 0.014112392 0.049350403 0.042438917 -0.0019686276 -0.028221639 0.04729585 -0.08569466 0.05032182 -0.0020739376 -0.030705504
제목 0.035843935 -0.035537455 0.045528643 0.055877708 0.024036229 -0.023470648 0.009402429 0.025137518 0.006577834 0.031954642 0.019138943 0.0024005356 -0.012976319 0.028282551 -0.05638141 -0.0030864426 -0.015524415 0.029846234 0.045396693 -0.013986903
비 0.014701296 0.07727394 0.08693239 0.015339993 -0.017724428 0.005988272 0.023455549 -0.07394082 0.060923904 -0.023428522 0.025849454 0.061950304 0.05706319 0.012546696 -0.03426244 0.052889228 -0.013150871 0.062379055 0.020174103 0.09043919
이랑 -0.0019576438 -0.0017154675 0.007911017 0.032846846 -6.386215e-05 0.0037058056 0.02833252 0.029094582 0.03536615 -0.004895252 0.03021756 0.050812922 -0.018032117 -0.011008601 -0.038375672 -0.021748565 0.018002046 -0.017155383 -0.033761654 -0.01759582
극장 0.027766444 0.009611602 -0.00077242835 -0.013663504 0.018484658 0.07332966 0.025053028 -0.023677079 0.008980725 -0.028931016 0.07620286 0.012402125 0.038683802 -0.0030810484 -0.079346485 0.021544974 -0.029946443 0.03330946 -0.053494018 0.012829646
치 0.024656761 0.05730264 -0.022330316 -0.075419195 -0.017817827 0.004553636 0.025577845 0.011369784 0.067413025 0.032373354 0.046603166 -0.01680551 0.035902206 0.0056336722 -0.0022266298 0.025070075 -0.052204102 0.057887476 -0.061609276 0.06054506
이걸 -0.05973493 0.027044164 0.13079262 -0.03155226 -0.06314147 0.07578371 0.10727121 -0.07186699 0.08382119 -0.08179399 0.050655223 0.036046676 0.0212807 0.10185341 -0.10510345 0.111911215 -0.020080945 0.08712078 -0.05792716 0.052071474
부분 -0.0072224666 -0.00040454196 0.02075091 -0.082847536 0.06728796 -0.0016567506 -0.035947543 0.020587916 -0.04456928 -0.018861191 0.018649364 -0.044614162 0.05189963 0.0064473995 0.053537257 0.032852244 -0.0904828 -0.038408052 -0.05382885 -0.036505964
그렇 -0.03789466 0.033000853 0.097925514 -0.105022386 -0.07193269 0.043673515 0.133976 -0.038579896 0.09139311 -0.06546055 0.02317866 0.067443855 0.039252933 0.050843112 -0.041523844 0.07545376 -0.066261 0.032681257 -0.09257445 0.060061656
대사 0.04249772 0.035871718 0.055343244 -0.016100131 -0.0027199 -0.009328606 -0.0029695288 -0.028438875 0.07000497 -0.03722116 0.018978346 -0.024473256 -0.045877162 0.035060573 -0.01960783 0.032748654 0.06409847 0.045200225 0.0101729045 0.012540203
바 -0.022003662 0.101407625 0.022894457 0.016001342 -0.106779665 0.04898478 0.007731637 -0.07746822 0.082561865 -0.019662397 0.046758194 0.05766417 0.06158382 0.092623085 -0.06778423 0.042992752 0.0023176442 0.02890253 -0.009315044 0.016507694
대단 0.019996911 -0.054522883 -0.04644173 0.021782406 0.03886537 -0.10324092 -0.03462194 0.06360561 -0.09547403 0.039909795 -0.059037093 -0.045525707 -0.03909546 -0.097124785 0.020786189 -0.05330368 0.092190064 -0.025689973 0.09650148 -0.02530402
어디 -0.034877952 -0.03479815 0.04107342 -0.035551395 -0.059608474 0.0028407313 0.01637242 -0.017903615 -0.02728446 -0.00545204 -0.0043226746 0.05137561 0.06821243 0.04077175 -0.033165663 0.06124074 -0.07300901 -0.018661804 0.028097447 -0.032995544
개봉 0.017677039 0.035684936 -0.02650908 0.034473035 -0.008468443 0.041595165 0.089914486 -0.006585982 0.028214013 0.012346599 0.017440895 0.029100327 -0.012415462 -0.004969759 -0.055156842 0.008383031 0.026508823 0.06370891 -0.03894747 -0.026448708
진 -0.020057136 0.01129118 -0.012818597 -0.084352866 0.0054687695 -0.08917125 -0.015061027 -0.0058865887 -0.07196648 -0.02355302 -0.00943853 -0.008229137 0.021761196 -0.04763775 0.0014667477 0.08609816 -0.08979453 -0.013653637 -0.047642007 -0.015724562
아쉽 -0.009616707 -0.04329882 -0.05005109 -0.052760985 -0.025589505 -0.017629547 -0.0138114 -0.023828322 -0.027498301 0.015190054 -0.009522138 0.005209686 -0.044435453 0.0010188306 -0.026223097 0.03518167 -0.014284835 -0.023545092 -0.0113613475 -0.028180614
된다 0.022793088 -0.028818324 -0.012502624 -0.0074962224 0.04496247 0.028153326 0.08155806 0.032691114 0.015301431 0.0731838 -0.00046241086 0.039614905 -0.0023032865 -0.01854936 0.07060489 -0.05777034 -0.0052609025 0.026701612 0.06180251 0.034694634
기분 0.027779417 0.05180149 -0.025780931 0.010204542 -0.030394036 0.03018751 0.020177627 -0.051894195 0.02302901 -0.02308249 0.033828035 0.017642764 0.018637171 -0.0013954329 -0.07776311 -0.066181794 0.034548875 0.055191506 0.0087309815 -0.0012355645
작가 -0.04685539 0.11001811 -0.007856541 0.0216477 -0.043077055 0.07962104 0.029536145 -0.011724896 0.13012509 -0.07822951 0.00824033 0.012818883 -0.033754237 0.071295686 -0.054761417 0.019781722 0.012850419 0.061355926 -0.053142484 0.08272274
진심 -0.046985164 0.03225273 0.0401266 0.04125093 0.032590255 -0.028636746 0.04577212 0.026498832 0.059844054 -0.033538427 0.014508668 -0.026297376 -0.001998044 -0.04050753 -0.005252989 -0.035403136 -0.026651265 0.030630255 0.03167359 0.045837764
구 0.04825677 0.04703633 0.00049672864 0.019398563 -0.025090748 -0.0027254864 0.04379548 0.035446033 0.011165333 0.03992836 0.0008051703 -0.021233998 -0.040293615 0.012317918 0.005496114 0.012726162 0.033393063 -0.023650458 0.015360416 0.011774773
해도 -0.06765412 0.011763415 -0.041244533 -0.077583335 0.0075414283 -0.05081075 -0.03487964 0.04015757 0.008012661 -0.031220224 0.06386209 0.031654384 0.022590252 -0.048029024 0.01309414 0.022910686 -0.045312986 0.061041195 -0.06761654 -0.03536943
놓 -0.05995126 0.044846434 0.0025504061 -0.0867933 -0.029839838 0.01983734 0.049679603 -0.043814804 0.036103655 0.018232865 -0.03511673 -0.011312869 0.06596663 0.010462826 0.044579003 0.07050351 -0.018208928 0.014882442 -0.040529277 0.036506522
타임 0.04283193 -0.035653584 0.05636027 -0.011443181 0.018414384 -0.0034013996 -0.0041531306 0.023566185 0.030019118 0.042664126 -0.027363751 0.043058164 -0.029005084 0.028857362 -0.01698771 -0.037540153 -0.016577732 0.042648084 0.0011736697 0.052081026
봐야 0.105990864 -0.055476416 -0.036965374 0.071518116 0.023202077 0.0026562593 -0.020386377 0.015156013 -0.037829686 0.06552034 -0.009603189 0.016538097 -0.08515769 -0.05562246 0.073384896 -0.031170249 0.07386344 -0.06262745 0.044938028 -0.060110822
제 0.0030294019 0.010904546 0.010946369 -0.04079852 -0.011412911 -0.028613523 0.05044085 -0.004991233 0.0518846 -0.017170219 0.032173153 -0.015889691 0.003658665 -0.04158425 -0.017784938 0.058245413 -0.03989605 -0.022774355 -0.043809928 -0.02974266
보이 -0.020684892 0.018454965 -0.003999475 -0.047064964 -0.0013979949 -0.027985334 -0.05845209 -0.01892516 -0.048094522 -0.02667276 -0.043533023 -0.025418015 -0.013159811 0.017292902 -0.027102616 0.046146266 -0.025681386 -0.04160053 0.03482268 -0.022699296
웃기 0.061003253 -0.06714222 -0.038570926 0.066982165 0.041525006 -0.07856804 -0.07196654 0.027126947 0.0108932275 0.0031565565 -0.033499468 -0.034042645 0.0041748714 -0.028180916 -0.025875403 -0.0070235506 0.033997662 -0.017681327 0.025462046 -0.04983583
막장 -0.040703323 0.11194707 0.14157407 -0.14770402 -0.079565994 0.118292965 0.15012959 -0.060500216 0.15291023 -0.055145357 0.06748162 0.12135751 0.10699819 0.08639083 -0.048791688 0.12733412 -0.077878684 0.12079826 -0.067246795 0.13762529
물 -0.026622288 0.0039879545 0.030566715 -0.0062341583 -0.02894606 0.0035096093 0.057774886 -0.0012431068 0.044897195 -0.009991444 0.05406274 -0.0006993045 0.035309963 0.006252076 -0.00052131445 -0.0057337647 -0.020791437 -0.017949838 -0.046618 0.025852654
삶 0.04641476 -0.07677699 -0.09973643 -0.005326906 0.017456543 -0.051453505 -0.05440913 0.106751844 -0.122375004 0.07478514 -0.09903333 -0.08721539 -0.08777469 -0.059012096 0.06170531 -0.028687341 0.07133864 -0.06019221 0.08409365 -0.08204087
친구 0.03788571 -0.01737611 -0.027575493 0.020602774 -0.04262666 0.018952576 0.004385404 0.028588492 -0.060552042 0.044205226 0.029594975 -0.0022644843 0.018918134 0.012401751 -0.023200385 0.04860493 0.047063313 -0.005388885 0.048843496 -0.00044746
잔잔 0.033430032 -0.04615196 -0.037540324 0.038724434 0.036238924 0.036234938 -0.008305401 0.034492873 -0.020854449 0.025732376 -0.076113805 -0.050577845 -0.05107863 -0.030729644 0.029186683 -0.06185081 0.04702046 -0.05653533 0.037666824 -0.06306985
이제 -0.015054441 0.03805373 0.069924325 -0.023768205 -0.0042799613 0.030767167 0.03844837 -0.050905693 -0.010111607 -0.044997487 0.03448918 0.0129119335 -0.024173003 0.011543675 0.023825118 0.05813262 0.054007094 -0.021395173 -0.019095585 -0.0034247611
조금 0.060707886 -0.04629468 -0.05502109 0.070640825 0.033944234 -0.039503977 0.06383328 0.026934847 -0.017828694 0.04056341 -0.06037825 -0.00470073 -0.04516315 0.010270881 -0.011341252 -0.06166691 0.042450886 -0.036956243 0.081959315 -0.015103241
억지 -0.12357445 0.12088368 0.10479532 -0.078739755 -0.027325828 0.11310426 0.16127889 -0.10119536 0.0880539 -0.120975435 0.13944876 0.13356546 0.12967804 0.13834162 -0.105065696 0.047115933 -0.10723181 0.07705841 -0.14388919 0.15729995
가지 0.039426208 0.034555197 0.046868067 0.014722007 0.03909004 0.0051163286 0.041553035 -0.014744254 -0.012996207 -0.045476567 0.009296161 -0.003826292 -0.048924178 0.023870492 -0.00035991415 -0.03686575 0.07249719 0.015530642 0.0046029943 0.06324687
ㅠ -0.0037356943 0.0014907268 0.0076361885 0.054472156 0.008520985 -0.03202219 0.012877291 0.07264564 -0.007174431 0.037786294 0.012756183 -0.04086862 -0.08625775 -0.044807814 -0.0085528605 0.00912923 0.05803309 -0.052394614 0.073897965 -0.0041944943
영상 -0.035999935 -0.02262845 -0.054305248 0.015006726 -0.011868123 -0.029630011 -0.06268442 -0.0202084 -0.039311677 -0.03342926 0.037182692 0.02323582 0.031720743 0.011240133 -0.0019479442 -0.011867422 -0.0020689704 -0.0026840195 0.019657664 -0.026761314
찾 0.049205683 0.0117904125 -0.06360372 -0.00447106 0.0006890369 -0.037667755 0.030776836 0.057592317 0.0047396356 0.05944207 -0.023280583 -0.032812964 0.015491725 -0.04019006 -0.02504516 -0.05289006 0.014474125 -0.024049215 0.004409903 -0.03447171
라도 0.003859455 0.03757578 0.08483075 0.034550674 0.0022509038 0.045365307 -0.021665597 -0.033327494 0.035010938 -0.011526761 0.06645759 0.047321394 0.0012773123 0.059053406 -0.012655592 0.026172794 0.030804133 0.008868316 -0.048535965 0.008458144
딱 0.010061728 0.015782272 0.07228091 -0.03434135 -0.066777766 0.020593524 -0.012491009 -0.0016458381 -0.01683392 -0.08527784 0.060735464 0.003946537 0.016589513 0.05350529 -0.0869899 0.028492952 0.017280767 0.024170946 -0.014652424 -0.00258701
씬 0.0020729857 -0.047141936 0.0128152175 0.053926498 0.009473421 0.013563313 -0.047476463 -0.009894426 -0.0009724947 0.0023623072 0.0031705406 -0.051239315 0.00030248653 0.004743984 -0.03387467 -0.0700781 0.03600207 -0.01531832 0.04992724 -0.04106394
요즘 0.0922483 -0.0871164 -0.041308533 0.057813432 0.024570735 -0.05966052 -0.024951264 0.058612943 -0.03568558 0.04551149 -0.13371024 -0.0999659 -0.09019336 -0.10589325 0.12667449 -0.09146746 0.1037169 -0.102498695 0.095816985 -0.056920297
같이 -0.033460375 0.009886825 -0.04387829 0.048602104 -0.02880664 -0.052900385 -0.009815568 -0.006249976 -0.046627067 0.051665213 -0.01117042 0.015525558 -0.037617136 -0.030658508 -0.021684244 0.048532385 0.052202363 -0.00505372 -0.03473257 -0.045682937
스릴러 0.035822526 0.011691334 -0.03632118 0.083423324 -0.0034127762 -0.0016220692 -0.03603923 0.024577439 0.060109362 -0.014077388 -0.0074549206 -0.001895764 -0.060159054 -0.038666558 -0.0199445 -0.026985912 0.0032499214 -0.044017922 0.0063132024 -0.0024985508
믿 0.042441223 -0.0082146125 -0.052528642 0.045403298 0.023434615 -0.016096096 -0.07540223 0.004671898 0.010001321 0.018818496 -0.06630864 -0.03729554 0.023473244 -0.027868275 0.04690705 -0.055258386 -0.021328289 -0.047074888 0.038568817 -0.002169819
싫 -0.048616074 0.0757331 0.02881468 -0.17891945 -0.05426405 0.033962492 0.0917369 -0.046642985 0.06053344 -0.050194286 0.018971277 0.13022283 0.12088668 0.09592895 -0.052735213 0.0454157 -0.09430568 0.060552433 -0.111747384 0.026462408
나왔 0.06354907 0.004715864 -0.040626626 0.048837867 -0.012135141 0.042188983 0.042488948 -0.014849924 0.049944587 -0.00025374274 -0.010421182 0.05735555 -0.048023682 0.0038671377 -0.0282749 -0.060630973 0.062109895 -0.046271104 0.04276236 0.01333469
아까운 -0.009333957 0.11418637 0.032404467 -0.011012607 -0.09577646 0.10536541 0.082470976 -0.11216577 0.100736216 -0.055264927 0.12949435 0.13784492 0.071927436 0.07473885 -0.059546713 -0.0026937602 -0.026096452 0.081942 -0.07274865 0.08527489
긴장감 0.053895414 -0.008621422 -0.07632521 0.03708352 0.0842534 -0.043774292 -0.16111222 0.055157576 -0.04143652 0.030287541 -0.06399117 -0.022477666 -0.010605971 -0.01838486 0.071407646 -0.032686017 0.050038897 -0.07769325 0.0019912766 -0.025095858
중간 0.005212737 -0.0005830466 -0.00338697 0.026835406 -0.0012738346 0.0065769977 0.0709935 -0.009401419 0.077777445 -0.011850486 0.016976675 -0.002700733 0.030359546 0.042921163 -0.0042664264 -0.03139071 -0.050575685 -0.028595675 0.04026367 0.035849717
어떻게 0.0115449 0.0053381664 -0.011881083 -0.050892293 -0.017412659 -0.019579198 0.02368961 0.026035424 -0.01681172 -0.035424493 -0.0026361432 -0.045790046 0.020695597 0.00049777306 0.0572438 0.051121876 -0.061880045 0.027782666 0.020302901 0.017301232
개인 0.025003152 -0.02359686 0.0010480209 0.021973237 -0.0097986115 0.031923473 -0.031822797 0.08098568 0.036785223 0.02798497 -0.052572418 -0.050235678 -0.021145284 -0.04612051 -0.030327043 -0.004759174 0.024569688 -0.049303856 -0.022672003 -0.05789705
제대로 0.044872675 0.004485884 -0.03459253 0.013598752 0.016372759 -0.032072935 -0.035531703 0.005520733 -0.02965852 0.016669873 0.012076137 0.01854204 0.017600827 -0.0531443 -0.009611175 -0.036135394 0.07738173 -0.038346138 0.016854446 0.010527663
점수 -0.031436503 0.016629692 0.031398542 -0.04044197 -0.027506137 0.020758271 0.0354639 -0.035631087 0.039235424 -0.030327423 0.043324154 0.011816232 -0.0098816035 0.0064389817 0.005857414 0.0030756122 -0.042797882 -0.019208299 -0.0490546 -0.032840613
부족 -0.014567971 0.05471386 0.002714626 -0.05487952 -0.06383186 -0.013991207 0.080194265 -0.06602154 0.052509338 -0.00688504 0.019487824 0.048807614 0.050721783 0.07752292 -0.06602296 -0.010468886 -0.04855374 0.082515 -0.08360875 0.06786922
이유 -0.043288115 0.047384366 0.009818503 -0.022499455 -0.037890796 -0.016056698 0.093893304 0.012647994 0.05829222 0.0029647439 -0.021913132 -0.01600077 -0.0055789948 0.049911644 0.018004065 0.06840106 0.006715402 0.023469323 0.051807888 0.029074505
노래 0.03141319 -0.015279629 -0.01137499 -0.035156913 0.04065206 -0.0026800316 0.015745763 -0.0038794307 0.04930536 0.022368008 -0.052944835 -0.007907028 0.008127538 -0.04763073 0.018300408 0.028840084 0.030059475 0.019524137 -0.02309845 -0.03532797
만큼 0.05089886 -0.040218376 -0.037024792 0.016954415 0.042875618 -0.003190156 0.035788897 -0.023523893 -0.049600698 0.054072544 -0.06263401 -0.021177493 0.019682694 0.03158398 -0.0029982526 -0.045194495 0.02453397 -0.03061524 0.03910114 0.0002614058
ㅜㅜ 0.0869905 0.03541054 -0.056556005 0.024383064 -0.015751114 -0.009203344 0.031630795 -0.006911176 -0.0021364319 0.048271697 0.02597724 0.010421868 -0.07892073 -0.03062347 0.04685989 -0.012074138 0.05297486 0.00036312285 0.08352556 0.04215178
라면 -0.014339608 -0.05565999 -0.03265715 0.014415482 0.010125817 -0.034999177 -0.022176893 -0.028750056 -0.020839037 0.013383673 0.008998871 -0.058152907 -0.012946279 -0.0066279913 -0.017016672 0.020320827 0.023099555 -0.057280317 -0.01226214 -0.011691016
시작 0.009651186 0.0332709 -0.009470087 0.08988646 0.061351463 0.02303614 0.03826904 -0.00430245 0.006508298 0.00075532676 0.017741904 -0.0053639123 -0.045186654 0.03903902 -0.021397267 -0.041440576 0.05277754 -0.054258868 -0.026165325 -0.024581173
잇 0.03987841 -0.023533573 0.005502922 0.0012794632 0.0334574 0.02946237 -0.09113906 0.022295287 -0.090673916 -0.023552103 -0.04754131 -0.0055939537 -0.011499919 -0.079935215 0.05000173 -0.06878063 -0.004712346 -0.08146322 0.05649455 -0.010462025
구나 0.043985873 0.017009215 0.030317947 -0.044185184 -0.02347253 -0.017957462 -0.00814628 -0.020989295 0.030914785 0.01603391 -0.044271052 0.04311921 0.013822667 -0.028232438 0.016016888 0.036278605 0.010384819 0.040704254 0.037375074 -0.009746642
한테 -0.0071705612 -0.020444255 0.006189441 -0.012253484 0.017037643 0.030862411 -0.0134637635 0.0091546895 0.0072906255 -0.057653166 0.015631583 0.032225084 0.058253452 -0.02885048 -0.022974934 0.065516345 -0.052722838 0.027707964 0.020117082 -0.00869553
특히 0.06747973 -0.07132624 -0.023022065 0.017513113 0.081866525 0.005271722 0.026946532 0.08644826 0.014814584 0.058047213 -0.04805508 0.0012788463 -0.10442978 -0.031595487 0.049699154 -0.060127363 0.06732743 -0.08206993 0.024254005 -0.021567816
려고 -0.020288428 0.015810946 0.029954229 -0.03301449 0.012355802 0.08238533 0.008885884 0.011415443 0.038583808 -0.050789494 0.09431383 0.061763458 0.05648045 0.043787256 -0.09551674 0.06358845 -0.0051688487 0.002552506 -0.038102787 0.02215382
날 0.011150711 0.02124543 -0.026252395 0.050093435 -0.013256139 -0.009862813 0.018231839 0.0833785 0.00514289 -0.00029482046 0.001570116 0.005412423 -0.02602061 -0.036282755 0.01464076 -0.03629719 -0.020015137 -0.037743837 0.012929423 -0.057596248
제일 -0.017132552 0.012650386 -0.031956013 -0.009173163 0.05320937 0.02514467 -0.039046932 -0.003866409 0.047828484 -0.01958232 -0.027580211 0.028116792 -0.04738421 0.04148981 -0.0057130363 0.0013196425 0.037801147 0.010771491 -0.008519642 -0.03394279
아름다운 0.039273754 -0.08029031 -0.042414386 0.03834129 0.044752724 -0.11559168 -0.0659993 0.040179722 -0.06903996 0.0783235 -0.06407121 -0.09554393 -0.12765558 -0.061681554 0.056117494 -0.11374928 0.06595776 -0.07018407 0.0374286 -0.13023156
시대 -0.010788605 0.035378728 -0.019525168 0.003123918 0.04521709 0.004960341 0.0064268657 -0.01833435 -0.0344562 0.045670435 -0.0072453986 -0.042097915 0.03750845 0.010221298 -0.029073033 -0.04634277 -0.05147149 0.0022672694 0.021914227 -0.046135288
니까 -0.028590549 -0.020866089 0.031361815 -0.0034014417 -0.015657922 -0.08163664 0.0034471233 0.02893346 -0.07230602 0.013787903 -0.009814539 -0.002374318 -0.012575011 0.020858884 0.010306884 0.025615912 -0.03807899 -0.0077737668 -0.01412131 -0.055956382
엔딩 0.029456332 -0.025339603 0.01696552 0.02424916 -0.011174888 -0.0020546955 0.06314707 0.03684915 0.011380528 -0.021224476 -0.025002997 -0.033220574 -0.069817 -0.045866754 0.04175464 0.03077803 -0.022441369 -0.0057230564 0.03774777 -0.018941358
당시 -0.01249104 -0.042302344 0.0001241243 -0.02857923 0.04217105 -0.029298062 0.00542503 0.013109289 0.0083457455 0.035404198 -0.020404192 -0.028518707 -0.029352365 0.00848021 0.054956555 -0.029436607 -0.023557026 0.002371586 0.0445403 -0.01942276
나름 0.08031555 -0.048670657 -0.07331695 -0.022919422 0.024457924 -0.025538113 0.020870993 0.016555764 -0.028210681 0.027229493 -0.017963424 -0.03746248 -0.0067828232 -0.026720246 0.047555305 0.018877754 0.02514252 -0.048193917 0.078141324 -0.0066172513
무섭 -0.02080007 -0.010057462 -0.015528931 0.0675008 0.01490527 0.042898368 0.027847301 -0.047450654 -0.023295743 -0.019768866 0.01685757 -0.03000448 -0.04594079 0.05251619 0.011442571 -0.013075685 -0.016134182 0.0017078476 0.030278292 0.03755661
오랜만 0.093430415 -0.02669 -0.08467832 0.09335583 0.054552965 -0.007595707 -0.060630135 0.07145294 0.06120335 0.06766741 -0.07031892 -0.0657648 -0.044823498 -0.027209463 0.050917026 -0.13867296 0.056504022 -0.08001064 0.043151047 6.427425e-05
나온 0.0628953 0.0644843 -0.009864704 0.09821107 0.030302303 -0.010829587 0.008536178 0.028893227 0.08018638 -0.04209829 0.019425161 0.005702333 0.018704731 0.07099793 0.011824625 -0.019604828 0.03769174 -0.027313948 0.051698137 -0.013612445
이것 -0.0030300978 0.05978846 0.0131194675 0.041227885 -0.050285455 0.027721593 0.032172743 -0.04817523 -0.016588865 0.009884129 0.040709656 -0.00087656267 0.025053183 -0.017160144 -0.053014573 -0.018034624 0.07531959 -0.036667835 0.004794193 -0.00922393
봐 0.024387216 -0.033838406 -0.00063205697 -0.012536257 -0.0044060526 0.0286184 -0.026284022 -0.018568879 -0.013380144 -0.045957223 -0.021572944 -0.024777586 0.07660852 -0.027042463 -0.027845953 0.070407815 0.019067168 -0.027768804 -0.025180258 -0.034156315
팬 -0.012633921 0.034708858 -0.020364186 0.0081863655 0.0081102075 -0.012510904 -0.035931423 -0.045626007 -0.0060672187 -7.1033544e-05 0.0012642465 0.00556642 -0.036302663 -0.004655337 0.044205297 -0.020916985 0.019784395 0.010355897 0.033395536 0.031105686
해요 0.046214405 -0.020127974 -0.045964547 0.09316134 0.0656348 0.04598611 0.012102482 0.031076282 -0.0061059548 -0.013713354 0.007845256 -0.009742047 -0.0901475 -0.00483661 0.016115 -0.048409835 0.109136514 -0.014498848 0.015771009 -0.04665564
사 0.015141948 -0.055993635 -0.068027884 -0.008963717 -0.003159237 -0.08195193 -0.0221287 0.03495908 -0.080179 -0.0015840888 -0.014405856 -0.045318186 0.010353332 -0.031809486 0.0011515236 -0.03052865 0.038649525 -0.00086678937 -0.022151772 -0.058605056
차라리 -0.15495037 0.16556028 0.18759964 -0.0653539 -0.2198724 0.27813596 0.21130723 -0.17967343 0.21990906 -0.24377456 0.21433896 0.23908053 0.16468939 0.19455527 -0.23631819 0.21536745 -0.11696937 0.19335139 -0.12837377 0.22816987
절대 -0.037148297 0.052307542 0.04802731 0.032981146 0.0023477012 -0.0082233725 -0.025597755 0.010768521 0.0075433566 0.02548161 -0.0034836342 -0.036941346 -0.029823974 0.048125252 -0.06617688 -0.03216736 0.041439615 0.0041598966 0.0430193 -0.030104969
세상 0.03099936 -0.03019654 -0.074447386 0.034102526 -0.017682588 0.020314766 -0.028767368 0.047071103 -0.058294207 0.035485145 -0.0100430995 -0.023369826 -0.034861576 -0.012653919 0.041875787 -0.011493072 0.009326561 0.0052087177 0.022341482 -0.004031656
못하 -0.050430644 0.07143753 -0.013175871 0.005013641 -0.010264062 0.012252467 0.04826337 -0.048235167 0.07115995 -0.070657425 0.030321378 0.09282225 -0.012390754 0.042008337 -0.04334334 0.04681368 -0.06323512 0.085695945 -0.0113285445 0.0029270113
감 0.04535734 -0.013205813 0.0117323175 0.028894559 0.04244762 -0.014672337 -0.057052583 0.035267804 0.016199637 -0.023214689 -0.0014264862 0.031299874 -0.0005345932 -0.047556333 0.033239726 -0.038455162 0.028554155 0.030733824 0.032632146 -0.024920452
의미 -0.045496188 -0.011558605 0.036957346 -0.013352292 -0.0005903888 0.020649249 0.014269353 0.01841326 -0.019036993 -0.011439851 -0.02350897 -0.029552005 -0.015164876 0.02229362 0.0568977 -0.023634145 0.01897851 0.024739536 -0.026738646 -0.026351377
봄 0.09523679 -0.04426895 0.01995693 0.032998357 0.035990126 0.0060565905 0.029008884 0.0065762787 -0.008456933 0.035253175 -0.05156414 0.053890485 -0.05708226 0.04149549 0.005593002 -0.034054466 0.03510242 -0.019563494 0.012749945 0.030438446
훌륭 0.0051420685 -0.14474364 -0.067823395 -0.010487201 0.13630301 -0.14070375 -0.16964056 0.04502843 -0.087950885 0.06830197 -0.09994775 -0.11684372 -0.018956723 -0.10864166 0.1451036 -0.07607707 0.078473724 -0.04688712 0.08211927 -0.15505737
욕 -0.050516818 0.11773091 0.0779726 -0.081303276 -0.099564135 0.07728098 0.0695205 -0.034908466 0.092957765 -0.062782265 0.056093596 0.08457033 0.042029753 0.03342984 -0.049225725 0.087915525 -0.078123525 0.054087814 -0.044241946 0.03559949
너무나 0.06094473 -0.05793761 -0.05862054 0.05707728 0.06373339 0.023881407 -0.08800819 0.031606723 0.0054950714 0.0033546537 0.012029986 0.0034554242 0.0040731058 -0.027394075 -0.03049046 -0.05424647 0.09474215 -0.06974685 -0.006067422 0.017952656
강추 0.076090835 -0.13253334 -0.07959699 0.06473579 0.083007805 -0.066743284 -0.099320255 0.13387771 -0.06884292 0.13570425 -0.10782068 -0.059534457 -0.10462913 -0.050337505 0.06883109 -0.09679908 0.13594869 -0.0830749 0.06257459 -0.08681864
드 0.008421485 0.063883394 -0.025976151 0.017989347 -0.017434763 0.027964978 0.0086923465 0.008693764 0.0565534 0.009564256 0.058864348 0.04657047 -0.0355395 0.026484987 0.023697305 -0.03425217 0.013827749 -0.02524876 0.032093644 0.015859269
따뜻 0.058160655 -0.09068237 -0.06830346 0.05774859 0.1447642 -0.109178625 -0.07391491 0.06431256 -0.16623446 0.07283751 -0.083387464 -0.1240194 -0.0519957 -0.06011133 0.11109122 -0.12952422 0.15359303 -0.10155583 0.09014356 -0.11705878
됨 0.011682308 0.009498851 -0.018386053 0.014024944 0.02291275 -0.07374356 0.025507787 -0.0043841377 0.0074316696 0.04138135 -0.020134678 -0.033698123 -0.047368474 -0.03444135 -0.026685841 0.009124507 0.021652432 -0.062011056 0.011261485 -0.051764246
빼 -0.10128123 0.005592537 0.026888765 -0.023122706 -0.01792577 0.03975887 -0.085634924 -0.034273632 0.041767232 0.022159554 0.02441438 -0.00045543228 0.061299104 -0.00965221 -0.022769278 0.016509175 -0.06760023 -0.0034080877 -0.069360435 0.035834663
느끼 -0.0029866202 -0.011609418 -0.008612141 0.0038770845 0.00255344 -0.062463768 -0.053771593 0.053807445 -0.023299584 0.047843456 0.032385416 -0.03918411 -0.035368692 -0.021180682 0.03660265 -0.03425366 0.04890167 -0.03298188 0.014995782 -0.048407514
해야 0.036007434 0.0200041 -0.024003921 -0.014220239 -0.030007794 -0.04696868 0.0005315441 -0.025438638 0.047006357 -0.019104855 0.0088541405 0.007829095 -0.02188242 -0.0405497 0.030285303 -0.0077295112 0.009466921 0.050231997 0.008834107 -0.04294636
명 0.026095882 -0.03611603 0.034136407 -0.005554537 -0.044777438 -0.010206352 0.038787182 0.037652217 -0.045245167 0.01533167 0.048215706 0.052692544 -0.03322282 -0.0073254844 -0.0397999 0.036546282 -0.05825388 0.04921765 -0.0118237445 0.04288629
글 -0.030799516 0.045964077 0.03384805 -0.10540658 0.014967565 0.018574476 -0.007576601 0.02106831 0.008993045 0.008170083 -0.005577343 -0.019325148 0.056878205 0.020453295 0.027277518 0.04534219 -0.053908292 0.03576208 -0.06193728 -0.0017454217
던데 0.06696896 -0.041842774 -0.012901355 0.08943339 0.02979355 -0.04284846 0.034947556 0.015988737 -0.008283638 0.035957485 -0.08387873 -0.016232196 -0.058458995 -0.053507052 -0.008520441 -0.0111186905 0.084533975 0.008808524 0.061766148 0.02938423
뻔 -0.001381834 0.0058117886 0.038615834 -0.03614137 -0.07507035 0.046980683 0.070084326 -0.018161085 0.06627171 -0.0049752276 0.05493524 0.048846718 0.07385139 0.048505787 -0.07513865 0.030444978 -0.086563855 0.009437126 -0.06385817 0.10237702
도대체 -0.050887283 0.10721545 0.04431563 -0.076655425 -0.04693286 0.06966974 0.10731349 -0.069266245 0.04872674 -0.08321941 0.11100035 0.026811259 0.09915802 0.07075354 -0.033873744 0.1200359 -0.018235762 0.01461629 -0.026741376 0.099105574
어야 -0.05033266 0.023525225 0.045000516 -0.01373515 -0.010404511 0.02000834 0.02946382 -0.061813302 0.02286829 -0.05958913 0.0053813406 0.055667218 0.09582338 0.036292728 -0.061249908 0.06376553 -0.015649108 0.022298805 0.0031744167 -0.005374714
마다 -0.033828456 -0.050587684 -0.06352274 -0.0037161964 -0.017461237 -0.05266992 -0.0063332915 -0.041618522 -0.031179966 0.047611017 -0.051258877 0.02186173 -0.0026566777 -0.01795058 0.027053025 0.02647409 0.032294836 -0.018978944 -0.034742594 0.018238645
